/*!
 * The following copyright notice may not be removed under any circumstances.
 * 
 * Copyright:
 * Copyright (c) 2011 by vernon adams. All rights reserved.
 * 
 * Trademark:
 * Oswald is a trademark of vernon adams.
 * 
 * Manufacturer:
 * vernon adams
 * 
 * Designer:
 * vernon adams
 * 
 * License information:
 * http://scripts.sil.org/OFL
 */
Cufon.registerFont({"w":1024,"face":{"font-family":"Oswald","font-weight":400,"font-stretch":"normal","units-per-em":"2048","panose-1":"2 0 5 6 0 0 0 2 0 4","ascent":"1638","descent":"-410","x-height":"18","bbox":"-320 -2444 2757.01 523","underline-thickness":"102","underline-position":"-103","unicode-range":"U+0020-U+FB02"},"glyphs":{" ":{"w":537},"\u00a0":{"w":537},"!":{"d":"64,-1792r256,0r-64,1408r-128,0xm64,-256r256,0r0,256r-256,0r0,-256","w":375},"\"":{"d":"62,-1792r256,0r-64,384r-128,0xm385,-1792r256,0r-64,384r-128,0","w":704},"#":{"d":"1024,-1024r-111,0r-28,192r139,0r0,192r-166,0r-90,640r-256,0r90,-640r-192,0r-90,640r-256,0r90,-640r-90,0r0,-192r117,0r28,-192r-145,0r0,-192r172,0r82,-576r256,0r-82,576r192,0r82,-576r256,0r-82,576r84,0r0,192xm437,-832r193,0r27,-192r-192,0","w":1088},"$":{"d":"576,-1920r128,0r0,121v234,44,363,205,384,455r-256,64v-7,-128,-46,-229,-128,-284r0,566v184,142,384,286,384,597v0,249,-149,389,-384,416r0,113r-128,0r0,-113v-198,-18,-314,-121,-384,-262v-38,-77,-59,-166,-64,-265r256,-64v10,179,54,325,192,376r0,-555r-256,-205v-143,-106,-247,-352,-164,-582v58,-162,199,-266,420,-268r0,-110xm576,-1600v-124,2,-192,70,-192,192v0,109,54,201,128,256r64,51r0,-499xm704,-198v147,-16,155,-247,80,-356v-22,-32,-51,-66,-80,-94r0,450","w":1216},"%":{"d":"444,-1516v267,0,366,199,367,484v1,233,-75,396,-231,464v-147,64,-317,5,-389,-86v-69,-88,-115,-211,-113,-378v3,-284,99,-484,366,-484xm444,-1321v-156,0,-145,257,-124,413v11,81,36,173,124,173v122,0,134,-168,134,-297v0,-128,-10,-289,-134,-289xm1554,-975v266,0,366,198,367,483v1,233,-74,397,-231,465v-147,64,-317,5,-389,-86v-69,-88,-115,-213,-113,-379v2,-284,100,-483,366,-483xm1688,-492v0,-128,-10,-279,-134,-288v-148,20,-141,222,-128,380v7,94,32,205,128,205v122,0,134,-168,134,-297xm1034,-1518r219,0r-282,1518r-220,0","w":1999},"&":{"d":"896,-157v-82,102,-206,175,-384,175v-247,0,-384,-156,-384,-402v0,-240,121,-388,256,-512r-64,-128v-72,-147,-175,-338,-102,-540v52,-144,166,-246,358,-246v173,0,296,80,354,200v76,157,-13,337,-78,444v-58,96,-139,196,-212,270r256,384v35,-86,48,-193,64,-320r256,0v-11,185,-86,357,-159,482v36,42,86,89,159,94r0,274v-155,-6,-233,-97,-320,-175xm576,-1600v-159,9,-137,240,-98,374v19,67,43,143,67,202v79,-116,148,-267,159,-448v5,-76,-50,-133,-128,-128xm384,-384v0,102,28,192,128,192v107,0,171,-67,224,-128r-255,-384v-56,78,-97,190,-97,320","w":1344},"'":{"d":"62,-1792r256,0r-64,384r-128,0","w":384},"(":{"d":"243,-124v-131,-250,-130,-739,-102,-1114v18,-235,61,-428,189,-542v60,-53,140,-75,246,-76r0,192v-150,7,-160,150,-176,295v-30,274,-26,671,0,946v12,125,28,234,109,281v19,11,42,14,67,14r0,192v-174,0,-271,-69,-333,-188","w":640},")":{"d":"397,-1668v131,250,130,739,102,1114v-18,235,-61,428,-189,542v-60,53,-140,75,-246,76r0,-192v150,-7,160,-150,176,-295v30,-274,26,-671,0,-946v-12,-125,-28,-234,-109,-281v-19,-11,-42,-14,-67,-14r0,-192v174,0,271,69,333,188","w":640},"*":{"d":"343,-904r-152,-90r172,-243r-257,-98r61,-161r245,132r-28,-300r192,0r-29,300r246,-132r61,161r-257,99r172,242r-152,90r-137,-277","w":896},"+":{"d":"256,-384r0,-192r-192,0r0,-192r192,0r0,-192r192,0r0,192r192,0r0,192r-192,0r0,192r-192,0","w":704},",":{"d":"128,-256r256,0v-2,160,7,290,-24,400v-22,79,-68,111,-168,112r-64,-128v90,1,131,-40,128,-128r-128,0r0,-256","w":512},"-":{"d":"0,-640r384,0r0,192r-384,0r0,-192","w":384},".":{"d":"64,-256r256,0r0,256r-256,0r0,-256","w":384},"\/":{"d":"575,-1792r257,0r-576,1792r-256,0","w":832},"0":{"d":"886,-105v-93,103,-298,161,-477,93v-182,-70,-281,-241,-281,-500r0,-768v4,-326,136,-530,448,-530v308,0,448,205,448,530r0,768v1,182,-55,315,-138,407xm384,-512v5,161,32,320,192,320v160,0,192,-159,192,-320r0,-768v-1,-166,-27,-320,-192,-320v-165,0,-192,154,-192,320r0,768","w":1152},"1":{"d":"64,-1600v105,-40,205,-96,256,-192r192,0r0,1792r-256,0r0,-1408r-192,0r0,-192","w":640},"2":{"d":"545,-1600v-175,0,-195,191,-192,384r-256,0v-11,-357,103,-591,448,-594v345,-3,494,254,437,601v-26,156,-95,266,-181,377r-448,576r640,0r0,256r-897,0r0,-256r449,-640v87,-129,162,-219,187,-376v26,-168,-30,-328,-187,-328","w":1089},"3":{"d":"992,-512v0,323,-126,530,-448,530v-320,0,-461,-197,-448,-530r256,0v2,180,19,320,192,320v173,0,192,-141,192,-320v0,-192,-64,-320,-256,-320r0,-256v133,1,217,-32,243,-135v9,-33,13,-73,13,-121v1,-155,-40,-256,-192,-256v-173,0,-190,141,-192,320r-256,0v-12,-333,127,-530,448,-530v299,0,448,173,448,466v0,210,-102,330,-256,384v166,62,256,216,256,448","w":1088},"4":{"d":"608,-460r-512,0r0,-285r448,-1048r320,0r0,1091r198,0r0,242r-198,0r0,460r-256,0r0,-460xm608,-702r32,-770r-288,770r256,0","w":1126},"5":{"d":"577,-974v-102,4,-157,75,-191,148r-218,0r0,-966r792,0r0,256r-560,0r-16,434v65,-38,148,-64,256,-64v298,0,384,227,384,526v0,364,-87,655,-453,658v-330,4,-444,-205,-443,-530r256,0v-2,167,8,326,173,326v206,0,208,-198,211,-409v3,-195,9,-386,-191,-379","w":1152},"6":{"d":"640,-1088v298,-1,384,219,384,512v0,255,-77,453,-243,546v-103,58,-271,66,-383,9v-178,-88,-269,-284,-270,-555r0,-576v1,-281,66,-505,243,-609v99,-58,264,-62,383,-21v171,61,270,205,270,438r-256,0v1,-156,-39,-256,-192,-256v-128,0,-192,128,-192,384r0,256v48,-76,128,-127,256,-128xm576,-896v-100,1,-153,63,-192,128v5,249,-43,576,192,576v156,0,192,-155,192,-320v0,-191,0,-387,-192,-384","w":1152},"7":{"d":"64,-1792r717,0r0,123r-326,1669r-246,0r328,-1579r-473,0r0,-213","w":845},"8":{"d":"705,-1344v0,-133,-27,-256,-160,-256v-134,0,-162,122,-162,256v0,142,20,281,162,281v142,0,160,-140,160,-281xm122,-1344v3,-291,133,-466,423,-466v289,0,418,176,421,466v2,191,-54,317,-167,398v132,81,193,214,193,435v0,326,-121,529,-447,529v-327,0,-447,-203,-449,-529v-1,-221,61,-355,194,-435v-113,-82,-169,-207,-168,-398xm352,-511v-3,168,22,319,193,319v171,0,193,-152,191,-319v-2,-157,-31,-307,-191,-307v-161,0,-191,149,-193,307","w":1088},"9":{"d":"512,-704v-298,1,-384,-219,-384,-512v0,-255,77,-453,243,-546v103,-58,271,-66,383,-9v178,88,269,284,270,555r0,576v-1,281,-66,505,-243,609v-99,58,-264,62,-383,21v-171,-61,-270,-205,-270,-438r256,0v-1,156,39,256,192,256v128,0,192,-128,192,-384r0,-256v-48,76,-128,127,-256,128xm576,-896v100,-1,153,-63,192,-128v-5,-249,43,-576,-192,-576v-156,0,-192,155,-192,320v0,191,0,387,192,384","w":1152},":":{"d":"128,-1088r256,0r0,256r-256,0r0,-256xm128,-512r256,0r0,256r-256,0r0,-256","w":439},";":{"d":"64,-1088r256,0r0,256r-256,0r0,-256xm64,-512r256,0v-2,160,7,290,-24,400v-22,79,-68,111,-168,112r-64,-128v90,1,131,-40,128,-128r-128,0r0,-256","w":384},"<":{"d":"64,-768r640,-448r0,256r-448,319r448,321r0,256r-640,-448r0,-256","w":832},"=":{"d":"64,-576r0,-192r576,0r0,192r-576,0xm64,-255r0,-192r576,0r0,192r-576,0","w":704},">":{"d":"768,-512r-640,448r0,-256r448,-321r-448,-319r0,-256r640,448r0,256","w":832},"?":{"d":"1025,-1216v0,298,-158,468,-385,576r0,256r-256,0r0,-320v172,-106,309,-215,369,-405v12,-39,15,-75,15,-107v0,-128,-64,-192,-192,-192v-152,0,-193,101,-192,256r-256,0v-16,-335,136,-512,448,-512v296,0,449,158,449,448xm384,-256r256,0r0,256r-256,0r0,-256","w":1152},"@":{"d":"884,-502v41,0,68,-9,74,-40r0,-403v-3,-30,-19,-51,-54,-51v-140,0,-136,160,-136,303v0,103,22,191,116,191xm1410,-316v-155,61,-339,-2,-399,-104v-32,65,-78,128,-171,128v-204,0,-295,-143,-321,-318v-35,-240,32,-469,182,-557v36,-21,75,-30,115,-30v91,1,135,53,142,136r0,-127r256,0r0,568v-1,62,6,125,68,118v106,-12,114,-140,116,-266v5,-382,-129,-620,-502,-612v-353,8,-510,239,-512,612v-3,437,142,712,574,704v110,-2,208,-29,296,-55r94,196v-220,55,-539,73,-752,1v-329,-111,-470,-399,-468,-846v2,-391,175,-639,458,-750v183,-73,450,-70,631,0v282,109,435,361,437,750v0,235,-82,388,-244,452","w":1782},"A":{"d":"416,-448r-96,448r-256,0r384,-1792r256,0r384,1792r-256,0r-96,-448r-320,0xm704,-640r-128,-768r-128,768r256,0","w":1152,"k":{"a":32,"c":32,"e":32,"g":32,"o":32,"s":32,"T":128,"V":128,"W":128,"Y":128}},"B":{"d":"768,-960v196,63,324,184,320,448v-3,246,-117,401,-297,474v-63,25,-135,38,-215,38r-448,0r0,-1792r384,0v331,3,538,132,546,448v6,231,-105,335,-290,384xm832,-512v0,-222,-102,-323,-320,-320r-128,0r0,640r128,0v218,3,320,-98,320,-320xm512,-1024v211,0,320,-104,320,-320v0,-249,-202,-260,-448,-256r0,576r128,0","w":1184},"C":{"d":"608,-1600v-215,0,-255,166,-256,384r0,640v5,202,56,384,256,384v220,0,260,-215,256,-448r256,0v11,395,-127,658,-512,658v-387,0,-512,-272,-512,-659r0,-511v2,-387,126,-658,512,-658v363,0,509,232,512,594r-256,0v-1,-218,-41,-384,-256,-384","w":1216},"D":{"d":"128,0r0,-1792v288,9,635,-43,784,112v85,88,111,220,112,400r0,704v1,277,-68,467,-270,540v-157,57,-415,29,-626,36xm384,-192v96,-1,218,5,276,-25v122,-62,108,-234,108,-423r0,-576v-1,-166,6,-307,-110,-360v-58,-27,-180,-24,-274,-24r0,1408","w":1120},"E":{"d":"704,-832r-320,0r0,640r448,0r0,192r-704,0r0,-1792r704,0r0,192r-448,0r0,576r320,0r0,192","w":896,"k":{"a":64,"c":64,"e":64,"g":64,"o":64,"s":64}},"F":{"d":"832,-1600r-448,0r0,576r320,0r0,192r-320,0r0,832r-256,0r0,-1792r704,0r0,192","w":896,"k":{"a":64,"c":64,"e":64,"g":64,"o":64,"s":64}},"G":{"d":"96,-1152v2,-387,126,-658,512,-658v360,0,509,230,512,594r-256,0v-1,-218,-41,-384,-256,-384v-215,0,-255,166,-256,384r0,576v-1,164,24,281,80,368v68,105,282,104,352,0v63,-94,85,-250,80,-432r-256,0r0,-192r512,0r0,896r-192,0r-64,-192v-44,110,-108,207,-256,210v-417,9,-513,-297,-512,-716r0,-454","w":1216},"H":{"d":"832,-832r-448,0r0,832r-256,0r0,-1792r256,0r0,768r448,0r0,-768r256,0r0,1792r-256,0r0,-832","w":1216},"I":{"d":"128,-1792r256,0r0,1792r-256,0r0,-1792","w":512},"J":{"d":"512,-1792r0,1344v1,216,-30,369,-189,423v-76,26,-210,26,-323,25r0,-192v129,1,219,0,243,-108v8,-35,13,-84,13,-148r0,-1344r256,0","w":640},"K":{"d":"1152,0r-320,0r-320,-832r-128,256r0,576r-256,0r0,-1792r256,0r0,768r384,-768r320,0r-385,704","w":1216,"k":{"a":64,"c":64,"e":64,"g":64,"o":64,"s":64}},"L":{"d":"128,0r0,-1792r256,0r0,1600r448,0r0,192r-704,0","w":896,"k":{"a":32,"c":32,"e":32,"g":32,"o":32,"s":32}},"M":{"d":"640,0r-256,-1414r0,1414r-256,0r0,-1792r354,0r254,1372r254,-1372r354,0r0,1792r-256,0r0,-1414r-256,1414r-192,0","w":1472},"N":{"d":"842,0r-458,-1192r0,1192r-256,0r0,-1792r192,0r448,1108r0,-1108r256,0r0,1792r-182,0","w":1152},"O":{"d":"608,-1810v366,0,512,234,512,594r0,640v-3,360,-146,594,-512,594v-368,0,-511,-228,-512,-594r0,-640v1,-366,144,-594,512,-594xm608,-1600v-192,0,-256,128,-256,320r0,768v0,192,64,320,256,320v192,0,256,-128,256,-320r0,-768v0,-192,-64,-320,-256,-320","w":1216},"P":{"d":"1024,-1280v0,296,-158,444,-448,448r-192,0r0,832r-256,0r0,-1792r448,0v320,0,448,192,448,512xm384,-1024v176,2,333,-2,370,-135v18,-63,15,-177,9,-252v-15,-172,-174,-195,-379,-189r0,576","w":1088,"k":{"a":64,"c":64,"e":64,"g":64,"o":64,"s":64}},"Q":{"d":"608,-1810v366,0,512,234,512,594r0,640v-1,233,-63,418,-208,512v32,31,80,65,144,64r0,192v-158,-6,-235,-97,-315,-186v-41,8,-85,12,-133,12v-368,-1,-511,-228,-512,-594r0,-640v1,-366,144,-594,512,-594xm608,-1600v-192,0,-256,128,-256,320r0,768v0,192,64,320,256,320v192,0,256,-128,256,-320r0,-768v0,-192,-64,-320,-256,-320","w":1216},"R":{"d":"1024,-1312v-1,211,-78,356,-224,416r288,896r-254,0r-258,-832r-192,0r0,832r-256,0r0,-1792r320,0v365,-2,578,126,576,480xm768,-1312v0,-232,-145,-301,-384,-288r0,576v238,12,384,-56,384,-288","w":1152},"S":{"d":"545,-1600v-179,-8,-231,179,-161,327v22,46,53,86,97,121r320,256v136,115,256,260,256,495v0,198,-101,323,-249,385v-96,40,-262,45,-368,12v-216,-67,-325,-250,-343,-508r256,-64v9,170,50,309,171,368v24,11,53,16,85,16v128,0,192,-64,192,-192v0,-166,-95,-242,-192,-320r-320,-256v-143,-106,-247,-352,-164,-582v58,-162,199,-267,420,-268v227,-1,368,90,448,233v38,68,59,146,64,233r-256,64v-13,-176,-73,-312,-256,-320","w":1153},"T":{"d":"960,-1792r0,228r-320,0r0,1564r-256,0r0,-1564r-320,0r0,-228r896,0"},"U":{"d":"1152,-640v3,391,-117,659,-512,659v-395,0,-512,-268,-512,-659r0,-1152r256,0r0,1152v-3,235,21,448,256,448v235,0,256,-213,256,-448r0,-1152r256,0r0,1152","w":1280},"V":{"d":"643,-832r189,-960r256,0r-384,1792r-256,0r-384,-1792r256,0r189,960r66,448","w":1152},"W":{"d":"960,-1792r128,832r63,512r65,-512r128,-832r256,0r-320,1792r-256,0r-128,-832r-64,-512r-64,512r-128,832r-256,0r-320,-1792r256,0r128,832r65,512r63,-512r128,-832r256,0","w":1664},"X":{"d":"576,-768r-254,768r-256,0r318,-929r-320,-863r256,0r256,704r256,-704r256,0r-320,859r316,933r-254,0","w":1152},"Y":{"d":"448,0r0,-576r-384,-1216r256,0r256,896r256,-896r256,0r-384,1216r0,576r-256,0","w":1152},"Z":{"d":"320,-192r576,0r0,192r-832,0r0,-192r576,-1408r-512,0r0,-192r768,0r0,192","w":960},"[":{"d":"128,-1856r512,0r0,128r-256,0r0,1664r256,0r0,128r-512,0r0,-1920","w":768},"\\":{"d":"512,0r-256,0r-192,-1792r256,0","w":576},"]":{"d":"640,64r-512,0r0,-128r256,0r0,-1664r-256,0r0,-128r512,0r0,1920","w":768},"^":{"d":"576,-1536r256,640r-256,0r-129,-448r-127,448r-256,0r256,-640r256,0","w":896},"_":{"d":"0,-192r768,0r0,192r-768,0r0,-192","w":768},"`":{"d":"128,-1792r256,0r128,384r-128,0","w":640},"a":{"d":"608,-192v-55,104,-105,210,-256,210v-122,0,-196,-93,-234,-188v-51,-129,-13,-301,58,-378v107,-116,258,-186,432,-256v-2,-142,19,-284,-128,-284v-114,0,-127,75,-128,192r-256,0v9,-247,136,-402,384,-402v251,0,376,159,384,402v10,300,-24,647,33,896r-255,0xm480,-192v63,0,97,-54,128,-94r0,-354v-86,62,-193,116,-240,212v-11,23,-16,48,-16,77v0,98,36,159,128,159","w":993,"k":{"v":64,"y":64}},"b":{"d":"650,-1060v-61,-63,-205,-12,-266,23r0,805v57,25,127,40,192,40v67,0,88,-47,103,-114v32,-142,27,-370,23,-554v-2,-85,-11,-158,-52,-200xm640,18v-120,0,-192,-71,-256,-134r0,116r-256,0r0,-1664r256,0r0,511v76,-74,131,-145,260,-145v225,0,274,172,300,386v26,215,28,549,-50,720v-49,107,-110,210,-254,210","w":1056,"k":{"v":64,"y":64}},"c":{"d":"864,-448v3,279,-101,467,-384,466v-345,0,-384,-313,-384,-658v0,-345,39,-658,384,-658v286,0,392,176,384,466r-256,0v-2,-122,-9,-256,-128,-256v-119,0,-119,143,-126,270v-3,55,-2,114,-2,178v0,157,-10,324,54,414v17,23,42,34,74,34v128,0,128,-128,128,-256r256,0","w":960,"k":{"v":64,"y":64}},"d":{"d":"480,-192v63,0,136,-16,192,-40r0,-805v-62,-36,-205,-87,-266,-23v-66,68,-54,217,-54,355v0,158,0,287,25,399v15,67,36,114,103,114xm412,-1298v129,0,183,70,260,145r0,-511r256,0r0,1664r-256,0r0,-116v-73,83,-228,187,-366,106v-160,-93,-210,-320,-210,-567v0,-227,9,-413,68,-558v43,-105,113,-163,248,-163","w":1056},"e":{"d":"864,-448v0,299,-106,466,-385,466v-354,0,-383,-317,-383,-688v0,-213,21,-376,96,-494v58,-91,148,-134,288,-134v346,0,383,298,384,658r-512,0v5,150,-14,326,54,415v17,22,42,33,74,33v130,1,129,-128,129,-256r255,0xm608,-768v-3,-140,8,-320,-128,-320v-134,0,-124,180,-128,320r256,0","w":960,"k":{"v":64,"y":64}},"f":{"d":"554,-1536v-126,-4,-104,135,-106,256r192,0r0,192r-192,0r0,1088r-256,0r0,-1088r-128,0r0,-192r128,0v-1,-154,-1,-305,82,-383v74,-69,231,-74,366,-53r0,190","w":704},"g":{"d":"512,-1298v146,-1,219,60,276,151v45,-78,113,-149,236,-151r0,210v-73,1,-122,29,-160,64v37,99,38,259,8,372v-53,197,-232,328,-489,269v-23,34,-62,102,-6,129v112,54,304,29,433,73v115,39,214,96,214,245v0,309,-329,337,-644,312v-115,-9,-230,-36,-288,-104v-19,-22,-28,-48,-28,-77v4,-141,88,-237,192,-284v-81,-22,-156,-72,-114,-169v30,-70,71,-134,114,-190v-78,-93,-128,-217,-128,-384v0,-224,89,-372,243,-438v46,-20,93,-28,141,-28xm484,193v128,0,316,21,316,-94v0,-10,-3,-21,-4,-33v-11,-97,-281,-105,-412,-123v-42,33,-94,108,-94,192v0,69,124,58,194,58xm512,-1120v-135,0,-160,149,-160,288v0,136,26,272,160,272v134,0,160,-136,160,-272v0,-139,-25,-288,-160,-288","w":1088},"h":{"d":"552,-1088v-73,1,-124,41,-168,75r0,1013r-256,0r0,-1792r256,0r0,650v98,-82,170,-156,328,-156v118,0,184,90,184,207r0,1091r-256,0r0,-960v2,-75,-11,-130,-88,-128"},"i":{"d":"128,-1280r256,0r0,1280r-256,0r0,-1280xm128,-1728r256,0r0,256r-256,0r0,-256","w":512},"j":{"d":"128,320v-45,0,-93,-5,-128,-17r0,-182v15,4,46,7,64,7v93,1,129,-61,128,-149r0,-1259r256,0r0,1287v-4,203,-120,313,-320,313xm192,-1728r256,0r0,256r-256,0r0,-256","w":576},"k":{"d":"384,-1792r0,985r320,-473r256,0r-287,447r287,833r-256,0r-192,-619r-128,171r0,448r-256,0r0,-1792r256,0","w":960},"l":{"d":"384,0r-256,0r0,-1792r256,0r0,1792","w":512},"m":{"d":"1088,-1088v-84,0,-142,47,-192,86r0,1002r-256,0r0,-929v-2,-75,9,-159,-64,-159v-84,0,-141,44,-192,81r0,1007r-256,0r0,-1280r256,0r0,145v73,-82,167,-159,319,-163v125,-3,176,59,193,169v77,-99,160,-166,320,-169v197,-3,192,174,192,367r0,931r-256,0r0,-934v-2,-73,8,-154,-64,-154","w":1536},"n":{"d":"544,-1088v-73,2,-115,41,-160,75r0,1013r-256,0r0,-1280r256,0r0,138v98,-82,170,-156,328,-156v118,0,184,90,184,207r0,1091r-256,0r0,-960v3,-78,-16,-130,-96,-128","w":992},"o":{"d":"480,18v-286,0,-384,-185,-384,-466r0,-384v-4,-281,98,-466,384,-466v286,0,384,185,384,466r0,384v4,281,-98,466,-384,466xm480,-1088v-128,0,-128,128,-128,256r0,384v0,128,0,256,128,256v128,0,128,-128,128,-256r0,-384v0,-128,0,-256,-128,-256","w":960,"k":{"v":64,"y":64}},"p":{"d":"640,18v-119,0,-192,-71,-256,-133r0,499r-256,0r0,-1664r256,0r0,128v77,-75,130,-146,260,-146v225,0,274,171,300,386v26,215,29,549,-50,720v-49,106,-110,210,-254,210xm630,-1070v-69,-69,-187,-6,-246,34r0,792v56,35,123,52,192,52v66,0,88,-47,103,-113v31,-142,30,-376,19,-555v-5,-88,-23,-165,-68,-210","w":1056,"k":{"v":64,"y":64}},"q":{"d":"412,-1298v130,0,183,71,260,146r0,-128r256,0r0,1664r-256,0r0,-499v-73,83,-228,185,-366,105v-159,-93,-210,-319,-210,-566v0,-227,9,-414,68,-559v43,-105,113,-163,248,-163xm480,-192v68,-2,137,-17,192,-52r0,-792v-61,-40,-177,-105,-246,-34v-105,107,-74,416,-68,607v3,107,14,193,58,245v16,19,38,26,64,26","w":1056},"r":{"d":"562,-1039v-109,0,-178,66,-178,175r0,864r-256,0r0,-1280r256,0r0,171r14,0v58,-100,145,-204,306,-185r0,283v-38,-16,-92,-28,-142,-28","w":704},"s":{"d":"864,-320v0,227,-150,338,-384,338v-232,0,-332,-153,-384,-338r192,-64v40,90,76,180,192,192v128,13,158,-149,96,-238v-9,-15,-19,-28,-32,-38r-256,-192v-101,-76,-192,-141,-192,-300v0,-227,150,-338,384,-338v157,0,248,76,312,169v34,49,57,106,72,169r-192,64v-32,-80,-69,-153,-147,-184v-106,-41,-208,52,-163,164v12,29,31,46,54,64v134,107,309,204,398,348v34,55,50,116,50,184","w":960},"t":{"d":"640,6v-137,21,-293,17,-366,-53v-72,-69,-82,-193,-82,-334r0,-707r-128,0r0,-192r128,0r0,-448r256,0r0,448r192,0r0,192r-192,0r0,747v-2,88,16,152,106,149v28,-1,59,-6,86,-10r0,208","w":704},"u":{"d":"384,-267v-3,71,67,107,134,81v48,-19,85,-51,122,-81r0,-1013r256,0r0,1280r-256,0r0,-138v-99,83,-170,156,-328,156v-118,0,-184,-90,-184,-207r0,-1091r256,0r0,1013"},"v":{"d":"352,0r-288,-1280r256,0r160,960r160,-960r256,0r-286,1280r-258,0","w":928,"k":{"a":64,"c":64,"e":64,"g":64,"o":64,"s":64}},"w":{"d":"704,-832r-128,832r-256,0r-256,-1280r256,0r128,832r128,-832r254,0r128,832r128,-832r256,0r-256,1280r-256,0","w":1406},"x":{"d":"320,-640r0,-64r-256,-576r256,0r128,384r32,128v42,-182,106,-342,160,-512r256,0r-256,576r0,64r256,640r-256,0r-128,-384r-32,-128v-42,182,-106,342,-160,512r-256,0","w":960},"y":{"d":"128,128v161,7,247,-95,209,-256r-273,-1152r256,0r161,896r31,-192r128,-704r256,0r-320,1344v-41,198,-206,259,-448,256r0,-192","w":960,"k":{"a":64,"c":64,"e":64,"g":64,"o":64,"s":64}},"z":{"d":"512,-1088r-384,0r0,-192r640,0r0,192r-448,896r448,0r0,192r-704,0r0,-192","w":830},"{":{"d":"256,-896v126,59,191,195,192,384v1,128,4,229,40,306v27,57,72,77,152,78r0,192v-242,3,-366,-91,-419,-288v-26,-96,-25,-305,-35,-432v-6,-83,-31,-117,-122,-112r0,-256v105,-3,113,-90,122,-196v13,-151,0,-378,58,-487v66,-124,207,-152,396,-149r0,192v-111,-3,-170,14,-183,112v-16,117,-7,307,-39,413v-32,106,-79,202,-162,243","w":704},"|":{"d":"128,-1920r192,0r0,2048r-192,0r0,-2048","w":384},"}":{"d":"256,-512v0,-191,66,-324,192,-384v-144,-80,-190,-280,-192,-512v-1,-131,2,-231,-98,-251v-24,-5,-56,-5,-94,-5r0,-192v189,-2,330,25,396,149v74,138,27,437,78,605v16,52,41,76,102,78r0,256v-146,-11,-128,111,-128,256v0,363,-91,585,-448,576r0,-192v199,3,192,-182,192,-384","w":704},"~":{"d":"384,-886v-53,-23,-109,-18,-103,54r-153,0v2,-151,61,-273,219,-273v111,0,180,86,281,86v37,0,52,-25,51,-69r153,0v-3,152,-61,276,-219,276v-93,0,-160,-44,-229,-74","w":960},"\u00a1":{"d":"128,-1152r128,0r64,1152r-256,0xm64,-1536r256,0r0,256r-256,0r0,-256","w":384},"\u00a2":{"d":"897,-473v7,266,-83,457,-320,487r0,114r-128,0r0,-113v-276,-16,-329,-248,-320,-547r0,-201v-5,-298,50,-537,320,-561r0,-114r128,0r0,114v235,29,323,201,320,463r-256,-1v0,-101,0,-204,-64,-241r0,866v68,-43,63,-155,64,-266r256,0xm412,-1020v-47,146,-26,375,-26,560v0,111,0,211,63,254r0,-865v-16,11,-30,28,-37,51","w":1027},"\u00a3":{"d":"640,-1344v-2,-122,-9,-256,-128,-256v-119,0,-125,143,-126,270r-2,370r256,0r0,192r-256,0r0,576r448,0r0,192r-832,0r0,-128r128,-63r0,-577r-128,0r0,-192r128,0v-2,-412,-27,-850,384,-850v261,0,326,200,320,466r-192,0","w":896},"\u00a4":{"d":"281,-1217v106,-82,357,-83,462,0r86,-86r90,90r-87,87v84,112,83,348,0,461r87,86r-90,90r-86,-86v-106,82,-357,83,-462,0r-86,86r-90,-90r86,-86v-82,-113,-83,-349,0,-462r-86,-86r90,-90xm320,-897v0,126,63,215,192,215v128,0,192,-88,192,-214v0,-126,-63,-214,-192,-214v-129,0,-192,87,-192,213"},"\u00a5":{"d":"384,0r0,-256r-192,0r0,-168r192,0r0,-129r-192,0r0,-166r149,0r-293,-1073r260,0r204,944r202,-944r260,0r-295,1073r153,0r0,166r-192,0r0,129r192,0r0,168r-192,0r0,256r-256,0"},"\u00a6":{"d":"94,-614r203,0r0,628r-203,0r0,-628xm94,-1518r203,0r0,629r-203,0r0,-629","w":395},"\u00a7":{"d":"864,-321v0,227,-150,338,-384,338v-157,0,-249,-75,-312,-169v-33,-49,-57,-105,-72,-169r192,-64v36,86,79,192,192,192v81,0,126,-44,128,-128v1,-67,-29,-124,-64,-148v-116,-76,-264,-143,-359,-235v-57,-56,-89,-119,-89,-221v0,-149,72,-253,186,-301v-95,-60,-186,-110,-186,-246v0,-227,150,-338,384,-338v233,0,334,156,384,338r-192,64v-36,-85,-78,-192,-192,-192v-81,0,-126,44,-128,128v-1,50,35,91,64,108v155,92,276,162,371,272v54,62,77,116,77,210v0,137,-62,233,-158,286v84,68,158,145,158,275xm512,-754v66,-23,129,-115,71,-190v-39,-51,-82,-88,-135,-130v-63,33,-132,133,-75,215v36,52,90,69,139,105","w":960},"\u00a8":{"d":"128,-1792r256,0r0,256r-256,0r0,-256xm512,-1792r256,0r0,256r-256,0r0,-256","w":896},"\u00a9":{"d":"1053,-578v-2,207,-74,357,-285,361v-273,5,-293,-235,-293,-506v0,-256,41,-461,299,-457v206,3,281,136,281,340r-183,0v-2,-96,-6,-191,-96,-196v-94,-5,-110,50,-116,141v-9,120,-15,346,12,451v13,52,36,79,96,79v101,0,105,-111,106,-213r179,0xm313,-981v-72,127,-97,347,-30,505v80,188,229,343,481,343v251,0,402,-156,481,-343v67,-158,40,-378,-30,-505v-99,-180,-314,-335,-590,-259v-143,39,-243,139,-312,259xm414,-84v-235,-146,-413,-436,-319,-806v64,-252,236,-433,485,-500v363,-98,647,91,783,328v79,138,125,359,70,552v-72,250,-239,423,-485,498v-190,57,-410,5,-534,-72","w":1528},"\u00aa":{"d":"623,-1176v0,174,-12,374,14,521r-191,0r-16,-111v-37,72,-96,119,-184,121v-150,4,-244,-159,-172,-297v61,-116,211,-149,356,-199v-2,-100,17,-233,-76,-233v-74,0,-89,71,-90,151r-178,0v7,-178,95,-290,272,-295v212,-6,265,131,265,342xm319,-799v49,0,94,-36,111,-75r0,-189v-61,33,-104,67,-136,91v-64,48,-63,173,25,173","w":842},"\u00ab":{"d":"64,-704r448,-512r0,320r-256,255r256,257r0,320r-448,-512r0,-128xm512,-704r448,-512r0,320r-256,255r256,257r0,320r-448,-512r0,-128"},"\u00ac":{"d":"128,-640r512,0r0,384r-128,0r0,-192r-384,0r0,-192","w":768},"\u00ad":{"d":"128,-640r512,0r0,192r-512,0r0,-192","w":768},"\u00ae":{"d":"313,-981v-72,127,-97,347,-30,505v80,188,229,343,481,343v251,0,402,-156,481,-343v67,-158,40,-378,-30,-505v-99,-180,-314,-335,-590,-259v-143,39,-243,139,-312,259xm414,-84v-235,-146,-413,-436,-319,-806v64,-252,236,-433,485,-500v363,-98,647,91,783,328v79,138,125,359,70,552v-72,250,-239,423,-485,498v-190,57,-410,5,-534,-72xm1026,-893v1,120,-54,181,-125,225v32,146,101,285,148,420r-168,0r-127,-385r-82,0r0,385r-156,0r0,-919r240,0v184,-1,268,95,270,274xm866,-897v0,-97,-32,-151,-123,-152r-71,0r0,320r33,0v80,1,133,-12,151,-75v6,-23,10,-54,10,-93","w":1528},"\u00b0":{"d":"512,-1042v-249,0,-384,-146,-384,-385v0,-239,136,-383,384,-383v248,0,384,145,384,383v0,239,-135,385,-384,385xm320,-1427v0,126,63,215,192,215v128,0,192,-88,192,-214v0,-126,-63,-214,-192,-214v-129,0,-192,87,-192,213"},"\u00b1":{"d":"128,-192r576,0r0,192r-576,0r0,-192xm320,-384r0,-192r-192,0r0,-192r192,0r0,-192r192,0r0,192r192,0r0,192r-192,0r0,192r-192,0","w":832},"\u00b2":{"d":"320,-1344v-64,0,-64,64,-64,128r-192,0v4,-162,88,-256,256,-256v168,0,256,94,256,256v0,87,-44,143,-88,208v-27,40,-62,85,-101,134r-131,170r320,0r0,128r-512,0r0,-128r192,-256v56,-83,128,-137,128,-256v0,-64,0,-128,-64,-128","w":640},"\u00b3":{"d":"640,-896v0,162,-88,256,-256,256v-168,0,-252,-93,-256,-256r192,0v0,64,0,128,64,128v64,0,62,-64,64,-128v3,-92,-34,-131,-128,-128r0,-128v94,3,131,-36,128,-128v-2,-64,0,-128,-64,-128v-64,0,-64,64,-64,128r-192,0v4,-162,88,-256,256,-256v168,0,256,94,256,256v0,125,-77,183,-192,192v116,9,192,67,192,192","w":768},"\u00b4":{"d":"256,-1408r-128,0r128,-384r256,0","w":640},"\u00b5":{"d":"640,-138v-43,90,-136,131,-256,138r0,256r-256,0r0,-1536r256,0r0,1013v-3,71,67,107,134,81v48,-19,85,-51,122,-81r0,-1013r256,0r0,1280r-256,0r0,-138"},"\u00b6":{"d":"16,-1204v4,-230,155,-332,407,-332r473,0r0,1536r-178,0r0,-876r-139,0r0,876r-197,0r0,-876v-167,-2,-283,-70,-338,-187v-19,-41,-28,-88,-28,-141","w":952},"\u00b7":{"d":"64,-960r256,0r0,256r-256,0r0,-256","w":384},"\u00b8":{"d":"64,384v97,-3,189,10,243,-27v41,-61,-38,-102,-83,-125v-28,-14,-60,-27,-96,-40r0,-192r128,0r0,128v103,31,194,65,245,147v37,104,-29,190,-117,213v-88,23,-202,23,-320,24r0,-128","w":576},"\u00b9":{"d":"64,-1344v103,-51,189,-109,256,-192r64,0r0,896r-192,0r0,-576r-128,0r0,-128","w":512},"\u00ba":{"d":"350,14v-263,2,-351,-164,-351,-424r0,-319v-1,-260,89,-426,351,-424v252,2,350,172,350,424r0,319v-2,252,-98,421,-350,424xm212,-451v0,96,8,165,35,219v31,61,167,63,196,2v49,-101,31,-305,31,-458v0,-96,-5,-165,-31,-220v-30,-62,-166,-58,-196,1v-51,99,-35,302,-35,456","w":899},"\u00bb":{"d":"960,-576r-448,512r0,-320r256,-257r-256,-255r0,-320r448,512r0,128xm512,-576r-448,512r0,-320r256,-257r-256,-255r0,-320r448,512r0,128"},"\u00bc":{"d":"64,-1344v103,-51,189,-109,256,-192r64,0r0,896r-192,0r0,-576r-128,0r0,-128xm895,-1792r257,0r-576,1792r-256,0xm1216,-257r-320,0r0,-128r340,-576r172,0r0,576r128,0r0,128r-128,0r0,256r-192,0r0,-256xm1216,-385r0,-256r-128,256r128,0","w":1601},"\u00bd":{"d":"64,-1344v103,-51,189,-109,256,-192r64,0r0,896r-192,0r0,-576r-128,0r0,-128xm895,-1792r257,0r-576,1792r-256,0xm1280,-769v-64,0,-64,64,-64,128r-192,0v4,-162,88,-256,256,-256v168,0,256,94,256,256v0,87,-44,143,-88,208v-27,40,-62,85,-101,134r-131,170r320,0r0,128r-512,0r0,-128r192,-256v56,-83,128,-137,128,-256v0,-64,0,-128,-64,-128","w":1600},"\u00be":{"d":"640,-896v0,162,-88,256,-256,256v-168,0,-252,-93,-256,-256r192,0v0,64,0,128,64,128v64,0,62,-64,64,-128v3,-92,-34,-131,-128,-128r0,-128v94,3,131,-36,128,-128v-2,-64,0,-128,-64,-128v-64,0,-64,64,-64,128r-192,0v4,-162,88,-256,256,-256v168,0,256,94,256,256v0,125,-77,183,-192,192v116,9,192,67,192,192xm1023,-1792r257,0r-576,1792r-256,0xm1344,-257r-320,0r0,-128r340,-576r172,0r0,576r128,0r0,128r-128,0r0,256r-192,0r0,-256xm1344,-385r0,-256r-128,256r128,0","w":1793},"\u00bf":{"d":"430,5v-237,3,-350,-120,-350,-351v0,-133,76,-221,134,-307v37,-55,84,-107,135,-159r0,-217r216,0r0,245r-64,86r-59,85v-51,82,-124,170,-124,285v0,76,31,128,112,126v116,-2,140,-102,141,-219r219,0v3,260,-106,423,-360,426xm564,-1106r-221,0r0,-223r221,0r0,223","w":891},"\u00c0":{"d":"416,-448r-96,448r-256,0r384,-1792r256,0r384,1792r-256,0r-96,-448r-320,0xm704,-640r-128,-768r-128,768r256,0xm384,-2304r256,0r128,384r-128,0","w":1152},"\u00c1":{"d":"416,-448r-96,448r-256,0r384,-1792r256,0r384,1792r-256,0r-96,-448r-320,0xm704,-640r-128,-768r-128,768r256,0xm512,-1920r-128,0r128,-384r256,0","w":1152},"\u00c2":{"d":"416,-448r-96,448r-256,0r384,-1792r256,0r384,1792r-256,0r-96,-448r-320,0xm704,-640r-128,-768r-128,768r256,0xm578,-2176r-128,256r-192,0r192,-384r256,0r192,384r-192,0","w":1152},"\u00c3":{"d":"416,-448r-96,448r-256,0r384,-1792r256,0r384,1792r-256,0r-96,-448r-320,0xm704,-640r-128,-768r-128,768r256,0xm480,-2038v-53,-23,-109,-18,-103,54r-153,0v2,-151,61,-273,219,-273v111,0,180,86,281,86v37,0,52,-25,51,-69r153,0v-3,152,-61,276,-219,276v-93,0,-160,-44,-229,-74","w":1152},"\u00c4":{"d":"416,-448r-96,448r-256,0r384,-1792r256,0r384,1792r-256,0r-96,-448r-320,0xm704,-640r-128,-768r-128,768r256,0xm256,-2176r256,0r0,256r-256,0r0,-256xm640,-2176r256,0r0,256r-256,0r0,-256","w":1152},"\u00c5":{"d":"416,-448r-96,448r-256,0r384,-1792r256,0r384,1792r-256,0r-96,-448r-320,0xm704,-640r-128,-768r-128,768r256,0xm704,-2176v0,-80,-46,-128,-128,-128v-82,0,-128,48,-128,128v0,80,45,128,128,128v82,0,128,-48,128,-128xm320,-2176v0,-157,94,-256,256,-256v162,0,256,99,256,256v0,157,-94,256,-256,256v-162,0,-256,-99,-256,-256","w":1152},"\u00c6":{"d":"1216,-832r-320,0r0,640r448,0r0,192r-704,0r0,-448r-320,0r-191,448r-255,0r764,-1792r706,0r0,192r-448,0r0,576r320,0r0,192xm640,-640r0,-658r-247,658r247,0","w":1408},"\u00c7":{"d":"640,-1600v-215,0,-255,166,-256,384r0,640v5,202,56,384,256,384v220,0,260,-215,256,-448r256,0v11,395,-127,658,-512,658v-387,0,-512,-272,-512,-659r0,-511v2,-387,126,-658,512,-658v363,0,509,232,512,594r-256,0v-1,-218,-41,-384,-256,-384xm512,384v97,-3,189,10,243,-27v41,-61,-38,-102,-83,-125v-28,-14,-60,-27,-96,-40r0,-192r128,0r0,128v103,31,194,65,245,147v37,104,-29,190,-117,213v-88,23,-202,23,-320,24r0,-128","w":1216},"\u00c8":{"d":"704,-832r-320,0r0,640r448,0r0,192r-704,0r0,-1792r704,0r0,192r-448,0r0,576r320,0r0,192xm288,-2304r256,0r128,384r-128,0","w":960},"\u00c9":{"d":"704,-832r-320,0r0,640r448,0r0,192r-704,0r0,-1792r704,0r0,192r-448,0r0,576r320,0r0,192xm416,-1920r-128,0r128,-384r256,0","w":960},"\u00ca":{"d":"704,-832r-320,0r0,640r448,0r0,192r-704,0r0,-1792r704,0r0,192r-448,0r0,576r320,0r0,192xm482,-2176r-128,256r-192,0r192,-384r256,0r192,384r-192,0","w":960},"\u00cb":{"d":"704,-832r-320,0r0,640r448,0r0,192r-704,0r0,-1792r704,0r0,192r-448,0r0,576r320,0r0,192xm160,-2304r256,0r0,256r-256,0r0,-256xm544,-2304r256,0r0,256r-256,0r0,-256","w":960},"\u00cc":{"d":"128,-1792r256,0r0,1792r-256,0r0,-1792xm65,-2304r256,0r128,384r-128,0","w":512},"\u00cd":{"d":"128,-1792r256,0r0,1792r-256,0r0,-1792xm193,-1920r-128,0r128,-384r256,0","w":512},"\u00ce":{"d":"128,-1792r256,0r0,1792r-256,0r0,-1792xm259,-2176r-128,256r-192,0r192,-384r256,0r192,384r-192,0","w":512},"\u00cf":{"d":"128,-1792r256,0r0,1792r-256,0r0,-1792xm-63,-2304r256,0r0,256r-256,0r0,-256xm321,-2304r256,0r0,256r-256,0r0,-256","w":512},"\u00d0":{"d":"128,0r0,-832r-64,0r0,-192r64,0r0,-768v288,9,635,-43,784,112v85,88,111,220,112,400r0,704v1,277,-68,467,-270,540v-157,57,-415,29,-626,36xm384,-192v96,-1,218,5,276,-25v122,-62,108,-234,108,-423r0,-576v-1,-166,6,-307,-110,-360v-58,-27,-180,-24,-274,-24r0,576r64,0r0,192r-64,0r0,640","w":1152},"\u00d1":{"d":"842,0r-458,-1192r0,1192r-256,0r0,-1792r192,0r448,1108r0,-1108r256,0r0,1792r-182,0xm480,-2038v-53,-23,-109,-18,-103,54r-153,0v2,-151,61,-273,219,-273v111,0,180,86,281,86v37,0,52,-25,51,-69r153,0v-3,152,-61,276,-219,276v-93,0,-160,-44,-229,-74","w":1152},"\u00d2":{"d":"640,-1810v366,0,512,234,512,594r0,640v-3,360,-146,594,-512,594v-368,0,-511,-228,-512,-594r0,-640v1,-366,144,-594,512,-594xm640,-1600v-192,0,-256,128,-256,320r0,768v0,192,64,320,256,320v192,0,256,-128,256,-320r0,-768v0,-192,-64,-320,-256,-320xm448,-2304r256,0r128,384r-128,0","w":1280},"\u00d3":{"d":"640,-1810v366,0,512,234,512,594r0,640v-3,360,-146,594,-512,594v-368,0,-511,-228,-512,-594r0,-640v1,-366,144,-594,512,-594xm640,-1600v-192,0,-256,128,-256,320r0,768v0,192,64,320,256,320v192,0,256,-128,256,-320r0,-768v0,-192,-64,-320,-256,-320xm576,-1920r-128,0r128,-384r256,0","w":1280},"\u00d4":{"d":"640,-1810v366,0,512,234,512,594r0,640v-3,360,-146,594,-512,594v-368,0,-511,-228,-512,-594r0,-640v1,-366,144,-594,512,-594xm640,-1600v-192,0,-256,128,-256,320r0,768v0,192,64,320,256,320v192,0,256,-128,256,-320r0,-768v0,-192,-64,-320,-256,-320xm642,-2176r-128,256r-192,0r192,-384r256,0r192,384r-192,0","w":1280},"\u00d5":{"d":"640,-1810v366,0,512,234,512,594r0,640v-3,360,-146,594,-512,594v-368,0,-511,-228,-512,-594r0,-640v1,-366,144,-594,512,-594xm640,-1600v-192,0,-256,128,-256,320r0,768v0,192,64,320,256,320v192,0,256,-128,256,-320r0,-768v0,-192,-64,-320,-256,-320xm544,-2038v-53,-23,-109,-18,-103,54r-153,0v2,-151,61,-273,219,-273v111,0,180,86,281,86v37,0,52,-25,51,-69r153,0v-3,152,-61,276,-219,276v-93,0,-160,-44,-229,-74","w":1280},"\u00d6":{"d":"640,-1810v366,0,512,234,512,594r0,640v-3,360,-146,594,-512,594v-368,0,-511,-228,-512,-594r0,-640v1,-366,144,-594,512,-594xm640,-1600v-192,0,-256,128,-256,320r0,768v0,192,64,320,256,320v192,0,256,-128,256,-320r0,-768v0,-192,-64,-320,-256,-320xm320,-2304r256,0r0,256r-256,0r0,-256xm704,-2304r256,0r0,256r-256,0r0,-256","w":1280},"\u00d7":{"d":"384,-512r-192,192r-128,-128r192,-192r-192,-192r128,-128r192,192r192,-192r128,128r-192,192r192,192r-128,128","w":768},"\u00d8":{"d":"916,-1745v164,91,235,280,236,529r0,640v-3,360,-146,593,-512,594v-59,0,-113,-6,-160,-18r-32,128r-128,0r43,-172v-165,-91,-235,-279,-235,-532r0,-640v1,-366,144,-593,512,-594v59,0,113,6,160,18r32,-128r128,0xm640,-1600v-192,0,-256,128,-256,320r0,768v0,84,12,158,43,212r320,-1283v-30,-11,-66,-17,-107,-17xm640,-192v192,0,256,-128,256,-320r0,-768v0,-85,-12,-157,-43,-212r-321,1283v30,11,66,17,108,17","w":1280},"\u00d9":{"d":"1152,-640v3,391,-117,659,-512,659v-395,0,-512,-268,-512,-659r0,-1152r256,0r0,1152v-3,235,21,448,256,448v235,0,256,-213,256,-448r0,-1152r256,0r0,1152xm448,-2304r256,0r128,384r-128,0","w":1280},"\u00da":{"d":"1152,-640v3,391,-117,659,-512,659v-395,0,-512,-268,-512,-659r0,-1152r256,0r0,1152v-3,235,21,448,256,448v235,0,256,-213,256,-448r0,-1152r256,0r0,1152xm576,-1920r-128,0r128,-384r256,0","w":1280},"\u00db":{"d":"1152,-640v3,391,-117,659,-512,659v-395,0,-512,-268,-512,-659r0,-1152r256,0r0,1152v-3,235,21,448,256,448v235,0,256,-213,256,-448r0,-1152r256,0r0,1152xm642,-2176r-128,256r-192,0r192,-384r256,0r192,384r-192,0","w":1280},"\u00dc":{"d":"1152,-640v3,391,-117,659,-512,659v-395,0,-512,-268,-512,-659r0,-1152r256,0r0,1152v-3,235,21,448,256,448v235,0,256,-213,256,-448r0,-1152r256,0r0,1152xm320,-2304r256,0r0,256r-256,0r0,-256xm704,-2304r256,0r0,256r-256,0r0,-256","w":1280},"\u00dd":{"d":"448,0r0,-576r-384,-1216r256,0r256,896r256,-896r256,0r-384,1216r0,576r-256,0xm512,-1920r-128,0r128,-384r256,0","w":1152},"\u00de":{"d":"911,-826v2,293,-161,453,-454,442r-131,0r0,384r-254,0r0,-1536r252,0r0,255r180,0v282,2,405,172,407,455xm649,-828v0,-168,-81,-233,-248,-230r-77,0r0,457v197,8,325,-30,325,-227","w":952},"\u00df":{"d":"544,-1600v-135,0,-160,105,-160,241r0,1359r-256,0r0,-1354v0,-224,86,-369,243,-431v46,-18,93,-25,141,-25v305,0,448,169,448,466v0,210,-75,325,-219,405v176,54,281,197,283,427v3,348,-159,533,-512,530r0,-210v143,2,220,-43,243,-162v9,-41,13,-94,13,-158v2,-183,-84,-299,-256,-300r0,-212v157,-10,199,-153,199,-320v0,-144,-24,-256,-167,-256","w":1152},"\u00e0":{"d":"640,-192v-55,104,-105,210,-256,210v-122,0,-196,-93,-234,-188v-51,-129,-13,-301,58,-378v107,-116,258,-186,432,-256v-2,-142,19,-284,-128,-284v-114,0,-127,75,-128,192r-256,0v9,-247,136,-402,384,-402v251,0,376,159,384,402v10,300,-24,647,33,896r-255,0xm512,-192v63,0,97,-54,128,-94r0,-354v-86,62,-193,116,-240,212v-11,23,-16,48,-16,77v0,98,36,159,128,159xm320,-1792r256,0r128,384r-128,0"},"\u00e1":{"d":"640,-192v-55,104,-105,210,-256,210v-122,0,-196,-93,-234,-188v-51,-129,-13,-301,58,-378v107,-116,258,-186,432,-256v-2,-142,19,-284,-128,-284v-114,0,-127,75,-128,192r-256,0v9,-247,136,-402,384,-402v251,0,376,159,384,402v10,300,-24,647,33,896r-255,0xm512,-192v63,0,97,-54,128,-94r0,-354v-86,62,-193,116,-240,212v-11,23,-16,48,-16,77v0,98,36,159,128,159xm448,-1408r-128,0r128,-384r256,0"},"\u00e2":{"d":"640,-192v-55,104,-105,210,-256,210v-122,0,-196,-93,-234,-188v-51,-129,-13,-301,58,-378v107,-116,258,-186,432,-256v-2,-142,19,-284,-128,-284v-114,0,-127,75,-128,192r-256,0v9,-247,136,-402,384,-402v251,0,376,159,384,402v10,300,-24,647,33,896r-255,0xm512,-192v63,0,97,-54,128,-94r0,-354v-86,62,-193,116,-240,212v-11,23,-16,48,-16,77v0,98,36,159,128,159xm514,-1664r-128,256r-192,0r192,-384r256,0r192,384r-192,0"},"\u00e3":{"d":"640,-192v-55,104,-105,210,-256,210v-122,0,-196,-93,-234,-188v-51,-129,-13,-301,58,-378v107,-116,258,-186,432,-256v-2,-142,19,-284,-128,-284v-114,0,-127,75,-128,192r-256,0v9,-247,136,-402,384,-402v251,0,376,159,384,402v10,300,-24,647,33,896r-255,0xm512,-192v63,0,97,-54,128,-94r0,-354v-86,62,-193,116,-240,212v-11,23,-16,48,-16,77v0,98,36,159,128,159xm416,-1526v-53,-23,-109,-18,-103,54r-153,0v2,-151,61,-273,219,-273v111,0,180,86,281,86v37,0,52,-25,51,-69r153,0v-3,152,-61,276,-219,276v-93,0,-160,-44,-229,-74"},"\u00e4":{"d":"640,-192v-55,104,-105,210,-256,210v-122,0,-196,-93,-234,-188v-51,-129,-13,-301,58,-378v107,-116,258,-186,432,-256v-2,-142,19,-284,-128,-284v-114,0,-127,75,-128,192r-256,0v9,-247,136,-402,384,-402v251,0,376,159,384,402v10,300,-24,647,33,896r-255,0xm512,-192v63,0,97,-54,128,-94r0,-354v-86,62,-193,116,-240,212v-11,23,-16,48,-16,77v0,98,36,159,128,159xm192,-1792r256,0r0,256r-256,0r0,-256xm576,-1792r256,0r0,256r-256,0r0,-256"},"\u00e5":{"d":"640,-192v-55,104,-105,210,-256,210v-122,0,-196,-93,-234,-188v-51,-129,-13,-301,58,-378v107,-116,258,-186,432,-256v-2,-142,19,-284,-128,-284v-114,0,-127,75,-128,192r-256,0v9,-247,136,-402,384,-402v251,0,376,159,384,402v10,300,-24,647,33,896r-255,0xm512,-192v63,0,97,-54,128,-94r0,-354v-86,62,-193,116,-240,212v-11,23,-16,48,-16,77v0,98,36,159,128,159xm640,-1664v0,-80,-46,-128,-128,-128v-82,0,-128,48,-128,128v0,80,45,128,128,128v82,0,128,-48,128,-128xm256,-1664v0,-157,94,-256,256,-256v162,0,256,99,256,256v0,157,-94,256,-256,256v-162,0,-256,-99,-256,-256"},"\u00e6":{"d":"426,19v-216,0,-326,-161,-292,-396v27,-185,157,-259,304,-338v55,-30,123,-58,202,-89v-2,-142,19,-284,-128,-284v-114,0,-127,75,-128,192r-256,0v9,-247,136,-397,384,-402v130,-3,214,66,257,146v41,-79,125,-147,254,-146v346,0,383,298,384,658r-511,0r0,178v7,125,6,265,127,270v129,5,129,-128,129,-256r255,0v0,299,-106,466,-385,466v-132,0,-208,-63,-254,-146v-95,83,-198,147,-342,147xm384,-351v0,113,60,178,170,153v45,-11,92,-30,129,-48v-31,-110,-43,-241,-44,-393v-96,66,-188,113,-239,211v-12,22,-16,48,-16,77xm1151,-768v-3,-140,8,-320,-128,-320v-135,0,-125,176,-127,320r255,0","w":1536},"\u00e7":{"d":"896,-448v3,279,-101,467,-384,466v-345,0,-384,-313,-384,-658v0,-345,39,-658,384,-658v286,0,392,176,384,466r-256,0v-2,-122,-9,-256,-128,-256v-119,0,-119,143,-126,270v-3,55,-2,114,-2,178v0,157,-10,324,54,414v17,23,42,34,74,34v128,0,128,-128,128,-256r256,0xm384,384v97,-3,189,10,243,-27v41,-61,-38,-102,-83,-125v-28,-14,-60,-27,-96,-40r0,-192r128,0r0,128v103,31,194,65,245,147v37,104,-29,190,-117,213v-88,23,-202,23,-320,24r0,-128","w":1027},"\u00e8":{"d":"896,-448v0,299,-106,466,-385,466v-354,0,-383,-317,-383,-688v0,-213,21,-376,96,-494v58,-91,148,-134,288,-134v346,0,383,298,384,658r-512,0v5,150,-14,326,54,415v17,22,42,33,74,33v130,1,129,-128,129,-256r255,0xm640,-768v-3,-140,8,-320,-128,-320v-134,0,-124,180,-128,320r256,0xm320,-1792r256,0r128,384r-128,0"},"\u00e9":{"d":"896,-448v0,299,-106,466,-385,466v-354,0,-383,-317,-383,-688v0,-213,21,-376,96,-494v58,-91,148,-134,288,-134v346,0,383,298,384,658r-512,0v5,150,-14,326,54,415v17,22,42,33,74,33v130,1,129,-128,129,-256r255,0xm640,-768v-3,-140,8,-320,-128,-320v-134,0,-124,180,-128,320r256,0xm448,-1408r-128,0r128,-384r256,0"},"\u00ea":{"d":"896,-448v0,299,-106,466,-385,466v-354,0,-383,-317,-383,-688v0,-213,21,-376,96,-494v58,-91,148,-134,288,-134v346,0,383,298,384,658r-512,0v5,150,-14,326,54,415v17,22,42,33,74,33v130,1,129,-128,129,-256r255,0xm640,-768v-3,-140,8,-320,-128,-320v-134,0,-124,180,-128,320r256,0xm514,-1664r-128,256r-192,0r192,-384r256,0r192,384r-192,0"},"\u00eb":{"d":"896,-448v0,299,-106,466,-385,466v-354,0,-383,-317,-383,-688v0,-213,21,-376,96,-494v58,-91,148,-134,288,-134v346,0,383,298,384,658r-512,0v5,150,-14,326,54,415v17,22,42,33,74,33v130,1,129,-128,129,-256r255,0xm640,-768v-3,-140,8,-320,-128,-320v-134,0,-124,180,-128,320r256,0xm192,-1792r256,0r0,256r-256,0r0,-256xm576,-1792r256,0r0,256r-256,0r0,-256"},"\u00ec":{"d":"78,-1135r221,0r0,1135r-221,0r0,-1135xm-3,-1792r256,0r128,384r-128,0","w":384},"\u00ed":{"d":"78,-1135r221,0r0,1135r-221,0r0,-1135xm125,-1408r-128,0r128,-384r256,0","w":384},"\u00ee":{"d":"78,-1135r221,0r0,1135r-221,0r0,-1135xm191,-1664r-128,256r-192,0r192,-384r256,0r192,384r-192,0","w":384},"\u00ef":{"d":"78,-1135r221,0r0,1135r-221,0r0,-1135xm-131,-1792r256,0r0,256r-256,0r0,-256xm253,-1792r256,0r0,256r-256,0r0,-256","w":375},"\u00f0":{"d":"512,-1298v130,0,213,66,256,146v0,-127,-20,-221,-69,-294r-443,102r0,-128r320,-74v-102,-46,-231,-53,-384,-54r0,-210v294,-1,535,40,668,199r228,-53r0,128r-156,36v114,216,92,589,92,924v0,271,-91,466,-270,555v-54,27,-114,39,-178,39v-365,-2,-447,-290,-447,-658v0,-270,58,-499,215,-609v48,-33,104,-49,168,-49xm576,-192v156,0,192,-155,192,-320r0,-466v-40,-57,-96,-110,-192,-110v-128,0,-192,128,-192,384v0,163,8,296,48,400v26,68,64,112,144,112","w":1152},"\u00f1":{"d":"544,-1088v-73,2,-115,41,-160,75r0,1013r-256,0r0,-1280r256,0r0,138v98,-82,170,-156,328,-156v118,0,184,90,184,207r0,1091r-256,0r0,-960v3,-78,-16,-130,-96,-128xm416,-1526v-53,-23,-109,-18,-103,54r-153,0v2,-151,61,-273,219,-273v111,0,180,86,281,86v37,0,52,-25,51,-69r153,0v-3,152,-61,276,-219,276v-93,0,-160,-44,-229,-74"},"\u00f2":{"d":"512,18v-286,0,-384,-185,-384,-466r0,-384v-4,-281,98,-466,384,-466v286,0,384,185,384,466r0,384v4,281,-98,466,-384,466xm512,-1088v-128,0,-128,128,-128,256r0,384v0,128,0,256,128,256v128,0,128,-128,128,-256r0,-384v0,-128,0,-256,-128,-256xm320,-1792r256,0r128,384r-128,0"},"\u00f3":{"d":"512,18v-286,0,-384,-185,-384,-466r0,-384v-4,-281,98,-466,384,-466v286,0,384,185,384,466r0,384v4,281,-98,466,-384,466xm512,-1088v-128,0,-128,128,-128,256r0,384v0,128,0,256,128,256v128,0,128,-128,128,-256r0,-384v0,-128,0,-256,-128,-256xm448,-1408r-128,0r128,-384r256,0"},"\u00f4":{"d":"512,18v-286,0,-384,-185,-384,-466r0,-384v-4,-281,98,-466,384,-466v286,0,384,185,384,466r0,384v4,281,-98,466,-384,466xm512,-1088v-128,0,-128,128,-128,256r0,384v0,128,0,256,128,256v128,0,128,-128,128,-256r0,-384v0,-128,0,-256,-128,-256xm514,-1664r-128,256r-192,0r192,-384r256,0r192,384r-192,0"},"\u00f5":{"d":"512,18v-286,0,-384,-185,-384,-466r0,-384v-4,-281,98,-466,384,-466v286,0,384,185,384,466r0,384v4,281,-98,466,-384,466xm512,-1088v-128,0,-128,128,-128,256r0,384v0,128,0,256,128,256v128,0,128,-128,128,-256r0,-384v0,-128,0,-256,-128,-256xm416,-1526v-53,-23,-109,-18,-103,54r-153,0v2,-151,61,-273,219,-273v111,0,180,86,281,86v37,0,52,-25,51,-69r153,0v-3,152,-61,276,-219,276v-93,0,-160,-44,-229,-74"},"\u00f6":{"d":"512,18v-286,0,-384,-185,-384,-466r0,-384v-4,-281,98,-466,384,-466v286,0,384,185,384,466r0,384v4,281,-98,466,-384,466xm512,-1088v-128,0,-128,128,-128,256r0,384v0,128,0,256,128,256v128,0,128,-128,128,-256r0,-384v0,-128,0,-256,-128,-256xm192,-1792r256,0r0,256r-256,0r0,-256xm576,-1792r256,0r0,256r-256,0r0,-256"},"\u00f7":{"d":"0,-768r640,0r0,192r-640,0r0,-192xm192,-1135r256,0r0,256r-256,0r0,-256xm192,-489r256,0r0,256r-256,0r0,-256","w":640},"\u00f8":{"d":"512,-1088v-128,0,-128,128,-128,256r2,486r236,-669v-17,-43,-48,-73,-110,-73xm280,-43v-113,-73,-152,-224,-152,-405r0,-384v-4,-281,99,-469,384,-466v81,0,142,14,195,40r72,-204r97,0r-92,257v155,141,106,473,112,757v6,281,-99,469,-384,466v-62,0,-115,-8,-158,-24r-72,202r-86,0xm512,-192v128,0,128,-128,128,-256r0,-355r-209,583v18,18,45,28,81,28"},"\u00f9":{"d":"384,-267v-3,71,67,107,134,81v48,-19,85,-51,122,-81r0,-1013r256,0r0,1280r-256,0r0,-138v-99,83,-170,156,-328,156v-118,0,-184,-90,-184,-207r0,-1091r256,0r0,1013xm320,-1792r256,0r128,384r-128,0"},"\u00fa":{"d":"384,-267v-3,71,67,107,134,81v48,-19,85,-51,122,-81r0,-1013r256,0r0,1280r-256,0r0,-138v-99,83,-170,156,-328,156v-118,0,-184,-90,-184,-207r0,-1091r256,0r0,1013xm448,-1408r-128,0r128,-384r256,0"},"\u00fb":{"d":"384,-267v-3,71,67,107,134,81v48,-19,85,-51,122,-81r0,-1013r256,0r0,1280r-256,0r0,-138v-99,83,-170,156,-328,156v-118,0,-184,-90,-184,-207r0,-1091r256,0r0,1013xm514,-1664r-128,256r-192,0r192,-384r256,0r192,384r-192,0"},"\u00fc":{"d":"384,-267v-3,71,67,107,134,81v48,-19,85,-51,122,-81r0,-1013r256,0r0,1280r-256,0r0,-138v-99,83,-170,156,-328,156v-118,0,-184,-90,-184,-207r0,-1091r256,0r0,1013xm192,-1792r256,0r0,256r-256,0r0,-256xm576,-1792r256,0r0,256r-256,0r0,-256"},"\u00fd":{"d":"128,128v161,7,247,-95,209,-256r-273,-1152r256,0r161,896r31,-192r128,-704r256,0r-320,1344v-41,198,-206,259,-448,256r0,-192xm416,-1408r-128,0r128,-384r256,0","w":960},"\u00fe":{"d":"620,-10v-122,70,-265,-26,-329,-99r0,449r-219,0r0,-1858r219,0r0,494v68,-66,114,-129,229,-129v195,0,228,164,240,357v17,268,51,677,-140,786xm504,-953v-56,-61,-163,-2,-213,31r0,699v67,39,119,59,155,59v58,0,74,-47,84,-108v23,-133,14,-332,14,-498v0,-76,-5,-145,-40,-183","w":838},"\u00ff":{"d":"128,128v161,7,247,-95,209,-256r-273,-1152r256,0r161,896r31,-192r128,-704r256,0r-320,1344v-41,198,-206,259,-448,256r0,-192xm160,-1792r256,0r0,256r-256,0r0,-256xm544,-1792r256,0r0,256r-256,0r0,-256","w":960},"\u0102":{"d":"576,-2124v114,0,127,-75,128,-192r192,0v1,243,-71,384,-320,384v-244,0,-322,-138,-320,-384r192,0v1,117,14,192,128,192xm416,-448r-96,448r-256,0r384,-1792r256,0r384,1792r-256,0r-96,-448r-320,0xm704,-640r-128,-768r-128,768r256,0","w":1152},"\u0103":{"d":"480,-1612v114,0,127,-75,128,-192r192,0v1,243,-71,384,-320,384v-244,0,-322,-138,-320,-384r192,0v1,117,14,192,128,192xm608,-192v-55,104,-105,210,-256,210v-122,0,-196,-93,-234,-188v-51,-129,-13,-301,58,-378v107,-116,258,-186,432,-256v-2,-142,19,-284,-128,-284v-114,0,-127,75,-128,192r-256,0v9,-247,136,-402,384,-402v251,0,376,159,384,402v10,300,-24,647,33,896r-255,0xm480,-192v63,0,97,-54,128,-94r0,-354v-86,62,-193,116,-240,212v-11,23,-16,48,-16,77v0,98,36,159,128,159","w":993},"\u0104":{"d":"617,313v0,-142,183,-312,256,-330r128,0v0,1,-41,54,-122,160v-47,61,-70,117,-70,166v0,44,20,52,61,61v23,5,88,7,195,7r0,128v-160,0,-267,-8,-320,-24v-85,-25,-128,-81,-128,-168xm416,-448r-96,448r-256,0r384,-1792r256,0r384,1792r-256,0r-96,-448r-320,0xm704,-640r-128,-768r-128,768r256,0","w":1152},"\u0105":{"d":"393,331v0,-142,183,-312,256,-330r128,0v0,1,-41,54,-122,160v-47,61,-70,117,-70,166v0,44,20,52,61,61v23,5,88,7,195,7r0,128v-160,0,-267,-8,-320,-24v-85,-25,-128,-81,-128,-168xm608,-192v-55,104,-105,210,-256,210v-122,0,-196,-93,-234,-188v-51,-129,-13,-301,58,-378v107,-116,258,-186,432,-256v-2,-142,19,-284,-128,-284v-114,0,-127,75,-128,192r-256,0v9,-247,136,-402,384,-402v251,0,376,159,384,402v10,300,-24,647,33,896r-255,0xm480,-192v63,0,97,-54,128,-94r0,-354v-86,62,-193,116,-240,212v-11,23,-16,48,-16,77v0,98,36,159,128,159","w":993},"\u0106":{"d":"672,-1932r-128,0r128,-384r256,0xm608,-1600v-215,0,-255,166,-256,384r0,640v5,202,56,384,256,384v220,0,260,-215,256,-448r256,0v11,395,-127,658,-512,658v-387,0,-512,-272,-512,-659r0,-511v2,-387,126,-658,512,-658v363,0,509,232,512,594r-256,0v-1,-218,-41,-384,-256,-384","w":1216},"\u0107":{"d":"544,-1420r-128,0r128,-384r256,0xm864,-448v3,279,-101,467,-384,466v-345,0,-384,-313,-384,-658v0,-345,39,-658,384,-658v286,0,392,176,384,466r-256,0v-2,-122,-9,-256,-128,-256v-119,0,-119,143,-126,270v-3,55,-2,114,-2,178v0,157,-10,324,54,414v17,23,42,34,74,34v128,0,128,-128,128,-256r256,0","w":960},"\u0108":{"d":"608,-2188r-128,256r-192,0r192,-384r256,0r192,384r-192,0xm608,-1600v-215,0,-255,166,-256,384r0,640v5,202,56,384,256,384v220,0,260,-215,256,-448r256,0v11,395,-127,658,-512,658v-387,0,-512,-272,-512,-659r0,-511v2,-387,126,-658,512,-658v363,0,509,232,512,594r-256,0v-1,-218,-41,-384,-256,-384","w":1216},"\u0109":{"d":"480,-1676r-128,256r-192,0r192,-384r256,0r192,384r-192,0xm864,-448v3,279,-101,467,-384,466v-345,0,-384,-313,-384,-658v0,-345,39,-658,384,-658v286,0,392,176,384,466r-256,0v-2,-122,-9,-256,-128,-256v-119,0,-119,143,-126,270v-3,55,-2,114,-2,178v0,157,-10,324,54,414v17,23,42,34,74,34v128,0,128,-128,128,-256r256,0","w":960},"\u010a":{"d":"480,-2188r256,0r0,256r-256,0r0,-256xm608,-1600v-215,0,-255,166,-256,384r0,640v5,202,56,384,256,384v220,0,260,-215,256,-448r256,0v11,395,-127,658,-512,658v-387,0,-512,-272,-512,-659r0,-511v2,-387,126,-658,512,-658v363,0,509,232,512,594r-256,0v-1,-218,-41,-384,-256,-384","w":1216},"\u010b":{"d":"352,-1676r256,0r0,256r-256,0r0,-256xm864,-448v3,279,-101,467,-384,466v-345,0,-384,-313,-384,-658v0,-345,39,-658,384,-658v286,0,392,176,384,466r-256,0v-2,-122,-9,-256,-128,-256v-119,0,-119,143,-126,270v-3,55,-2,114,-2,178v0,157,-10,324,54,414v17,23,42,34,74,34v128,0,128,-128,128,-256r256,0","w":960},"\u010c":{"d":"736,-2316r192,0r-192,384r-256,0r-192,-384r192,0r128,256xm608,-1600v-215,0,-255,166,-256,384r0,640v5,202,56,384,256,384v220,0,260,-215,256,-448r256,0v11,395,-127,658,-512,658v-387,0,-512,-272,-512,-659r0,-511v2,-387,126,-658,512,-658v363,0,509,232,512,594r-256,0v-1,-218,-41,-384,-256,-384","w":1216},"\u010d":{"d":"608,-1804r192,0r-192,384r-256,0r-192,-384r192,0r128,256xm864,-448v3,279,-101,467,-384,466v-345,0,-384,-313,-384,-658v0,-345,39,-658,384,-658v286,0,392,176,384,466r-256,0v-2,-122,-9,-256,-128,-256v-119,0,-119,143,-126,270v-3,55,-2,114,-2,178v0,157,-10,324,54,414v17,23,42,34,74,34v128,0,128,-128,128,-256r256,0","w":960},"\u010e":{"d":"704,-2316r192,0r-192,384r-256,0r-192,-384r192,0r128,256xm128,0r0,-1792v288,9,635,-43,784,112v85,88,111,220,112,400r0,704v1,277,-68,467,-270,540v-157,57,-415,29,-626,36xm384,-192v96,-1,218,5,276,-25v122,-62,108,-234,108,-423r0,-576v-1,-166,6,-307,-110,-360v-58,-27,-180,-24,-274,-24r0,1408","w":1120},"\u010f":{"d":"1111,-1664r256,0v-2,160,7,290,-24,400v-22,79,-68,111,-168,112r-64,-128v90,1,131,-40,128,-128r-128,0r0,-256xm480,-192v63,0,136,-16,192,-40r0,-805v-62,-36,-205,-87,-266,-23v-66,68,-54,217,-54,355v0,158,0,287,25,399v15,67,36,114,103,114xm412,-1298v129,0,183,70,260,145r0,-511r256,0r0,1664r-256,0r0,-116v-73,83,-228,187,-366,106v-160,-93,-210,-320,-210,-567v0,-227,9,-413,68,-558v43,-105,113,-163,248,-163","w":1056},"\u0110":{"d":"128,0r0,-832r-64,0r0,-192r64,0r0,-768v288,9,635,-43,784,112v85,88,111,220,112,400r0,704v1,277,-68,467,-270,540v-157,57,-415,29,-626,36xm384,-192v96,-1,218,5,276,-25v122,-62,108,-234,108,-423r0,-576v-1,-166,6,-307,-110,-360v-58,-27,-180,-24,-274,-24r0,576r64,0r0,192r-64,0r0,640","w":1152},"\u0111":{"d":"591,-1522r384,0r0,192r-384,0r0,-192xm480,-192v63,0,136,-16,192,-40r0,-805v-62,-36,-205,-87,-266,-23v-66,68,-54,217,-54,355v0,158,0,287,25,399v15,67,36,114,103,114xm412,-1298v129,0,183,70,260,145r0,-511r256,0r0,1664r-256,0r0,-116v-73,83,-228,187,-366,106v-160,-93,-210,-320,-210,-567v0,-227,9,-413,68,-558v43,-105,113,-163,248,-163","w":1056},"\u0118":{"d":"380,313v0,-142,183,-312,256,-330r128,0v0,1,-41,54,-122,160v-47,61,-70,117,-70,166v0,44,20,52,61,61v23,5,88,7,195,7r0,128v-160,0,-267,-8,-320,-24v-85,-25,-128,-81,-128,-168xm704,-832r-320,0r0,640r448,0r0,192r-704,0r0,-1792r704,0r0,192r-448,0r0,576r320,0r0,192","w":896},"\u0119":{"d":"213,331v0,-142,183,-312,256,-330r128,0v0,1,-41,54,-122,160v-47,61,-70,117,-70,166v0,44,20,52,61,61v23,5,88,7,195,7r0,128v-160,0,-267,-8,-320,-24v-85,-25,-128,-81,-128,-168xm864,-448v0,299,-106,466,-385,466v-354,0,-383,-317,-383,-688v0,-213,21,-376,96,-494v58,-91,148,-134,288,-134v346,0,383,298,384,658r-512,0v5,150,-14,326,54,415v17,22,42,33,74,33v130,1,129,-128,129,-256r255,0xm608,-768v-3,-140,8,-320,-128,-320v-134,0,-124,180,-128,320r256,0","w":960},"\u011a":{"d":"608,-2316r192,0r-192,384r-256,0r-192,-384r192,0r128,256xm704,-832r-320,0r0,640r448,0r0,192r-704,0r0,-1792r704,0r0,192r-448,0r0,576r320,0r0,192","w":896},"\u011b":{"d":"608,-1804r192,0r-192,384r-256,0r-192,-384r192,0r128,256xm864,-448v0,299,-106,466,-385,466v-354,0,-383,-317,-383,-688v0,-213,21,-376,96,-494v58,-91,148,-134,288,-134v346,0,383,298,384,658r-512,0v5,150,-14,326,54,415v17,22,42,33,74,33v130,1,129,-128,129,-256r255,0xm608,-768v-3,-140,8,-320,-128,-320v-134,0,-124,180,-128,320r256,0","w":960},"\u011c":{"d":"608,-2188r-128,256r-192,0r192,-384r256,0r192,384r-192,0xm96,-1152v2,-387,126,-658,512,-658v360,0,509,230,512,594r-256,0v-1,-218,-41,-384,-256,-384v-215,0,-255,166,-256,384r0,576v-1,164,24,281,80,368v68,105,282,104,352,0v63,-94,85,-250,80,-432r-256,0r0,-192r512,0r0,896r-192,0r-64,-192v-44,110,-108,207,-256,210v-417,9,-513,-297,-512,-716r0,-454","w":1216},"\u011d":{"d":"537,-1676r-128,256r-192,0r192,-384r256,0r192,384r-192,0xm512,-1298v146,-1,219,60,276,151v45,-78,113,-149,236,-151r0,210v-73,1,-122,29,-160,64v37,99,38,259,8,372v-53,197,-232,328,-489,269v-23,34,-62,102,-6,129v112,54,304,29,433,73v115,39,214,96,214,245v0,309,-329,337,-644,312v-115,-9,-230,-36,-288,-104v-19,-22,-28,-48,-28,-77v4,-141,88,-237,192,-284v-81,-22,-156,-72,-114,-169v30,-70,71,-134,114,-190v-78,-93,-128,-217,-128,-384v0,-224,89,-372,243,-438v46,-20,93,-28,141,-28xm484,193v128,0,316,21,316,-94v0,-10,-3,-21,-4,-33v-11,-97,-281,-105,-412,-123v-42,33,-94,108,-94,192v0,69,124,58,194,58xm512,-1120v-135,0,-160,149,-160,288v0,136,26,272,160,272v134,0,160,-136,160,-272v0,-139,-25,-288,-160,-288","w":1088},"\u011e":{"d":"608,-2124v114,0,127,-75,128,-192r192,0v1,243,-71,384,-320,384v-244,0,-322,-138,-320,-384r192,0v1,117,14,192,128,192xm96,-1152v2,-387,126,-658,512,-658v360,0,509,230,512,594r-256,0v-1,-218,-41,-384,-256,-384v-215,0,-255,166,-256,384r0,576v-1,164,24,281,80,368v68,105,282,104,352,0v63,-94,85,-250,80,-432r-256,0r0,-192r512,0r0,896r-192,0r-64,-192v-44,110,-108,207,-256,210v-417,9,-513,-297,-512,-716r0,-454","w":1216},"\u011f":{"d":"519,-1612v114,0,127,-75,128,-192r192,0v1,243,-71,384,-320,384v-244,0,-322,-138,-320,-384r192,0v1,117,14,192,128,192xm512,-1298v146,-1,219,60,276,151v45,-78,113,-149,236,-151r0,210v-73,1,-122,29,-160,64v37,99,38,259,8,372v-53,197,-232,328,-489,269v-23,34,-62,102,-6,129v112,54,304,29,433,73v115,39,214,96,214,245v0,309,-329,337,-644,312v-115,-9,-230,-36,-288,-104v-19,-22,-28,-48,-28,-77v4,-141,88,-237,192,-284v-81,-22,-156,-72,-114,-169v30,-70,71,-134,114,-190v-78,-93,-128,-217,-128,-384v0,-224,89,-372,243,-438v46,-20,93,-28,141,-28xm484,193v128,0,316,21,316,-94v0,-10,-3,-21,-4,-33v-11,-97,-281,-105,-412,-123v-42,33,-94,108,-94,192v0,69,124,58,194,58xm512,-1120v-135,0,-160,149,-160,288v0,136,26,272,160,272v134,0,160,-136,160,-272v0,-139,-25,-288,-160,-288","w":1088},"\u0120":{"d":"480,-2188r256,0r0,256r-256,0r0,-256xm96,-1152v2,-387,126,-658,512,-658v360,0,509,230,512,594r-256,0v-1,-218,-41,-384,-256,-384v-215,0,-255,166,-256,384r0,576v-1,164,24,281,80,368v68,105,282,104,352,0v63,-94,85,-250,80,-432r-256,0r0,-192r512,0r0,896r-192,0r-64,-192v-44,110,-108,207,-256,210v-417,9,-513,-297,-512,-716r0,-454","w":1216},"\u0121":{"d":"373,-1676r256,0r0,256r-256,0r0,-256xm512,-1298v146,-1,219,60,276,151v45,-78,113,-149,236,-151r0,210v-73,1,-122,29,-160,64v37,99,38,259,8,372v-53,197,-232,328,-489,269v-23,34,-62,102,-6,129v112,54,304,29,433,73v115,39,214,96,214,245v0,309,-329,337,-644,312v-115,-9,-230,-36,-288,-104v-19,-22,-28,-48,-28,-77v4,-141,88,-237,192,-284v-81,-22,-156,-72,-114,-169v30,-70,71,-134,114,-190v-78,-93,-128,-217,-128,-384v0,-224,89,-372,243,-438v46,-20,93,-28,141,-28xm484,193v128,0,316,21,316,-94v0,-10,-3,-21,-4,-33v-11,-97,-281,-105,-412,-123v-42,33,-94,108,-94,192v0,69,124,58,194,58xm512,-1120v-135,0,-160,149,-160,288v0,136,26,272,160,272v134,0,160,-136,160,-272v0,-139,-25,-288,-160,-288","w":1088},"\u0124":{"d":"608,-2188r-128,256r-192,0r192,-384r256,0r192,384r-192,0xm832,-832r-448,0r0,832r-256,0r0,-1792r256,0r0,768r448,0r0,-768r256,0r0,1792r-256,0r0,-832","w":1216},"\u0126":{"d":"198,-1494r768,0r0,192r-768,0r0,-192xm832,-832r-448,0r0,832r-256,0r0,-1792r256,0r0,768r448,0r0,-768r256,0r0,1792r-256,0r0,-832","w":1216},"\u0127":{"d":"69,-1591r384,0r0,192r-384,0r0,-192xm552,-1088v-73,1,-124,41,-168,75r0,1013r-256,0r0,-1792r256,0r0,650v98,-82,170,-156,328,-156v118,0,184,90,184,207r0,1091r-256,0r0,-960v2,-75,-11,-130,-88,-128"},"\u0130":{"d":"128,-2188r256,0r0,256r-256,0r0,-256xm128,-1792r256,0r0,1792r-256,0r0,-1792","w":512},"\u0131":{"d":"78,-1135r221,0r0,1135r-221,0r0,-1135","w":384},"\u0134":{"d":"384,-2188r-128,256r-192,0r192,-384r256,0r192,384r-192,0xm512,-1792r0,1344v1,216,-30,369,-189,423v-76,26,-210,26,-323,25r0,-192v129,1,219,0,243,-108v8,-35,13,-84,13,-148r0,-1344r256,0","w":640},"\u0135":{"d":"128,320v-45,0,-93,-5,-128,-17r0,-182v15,4,46,7,64,7v93,1,129,-61,128,-149r0,-1259r256,0r0,1287v-4,203,-120,313,-320,313xm320,-1728r-128,256r-192,0r192,-384r256,0r192,384r-192,0","w":576},"\u0139":{"d":"544,-1932r-128,0r128,-384r256,0xm128,0r0,-1792r256,0r0,1600r448,0r0,192r-704,0","w":896},"\u013a":{"d":"320,-1914r-128,0r128,-384r256,0xm384,0r-256,0r0,-1792r256,0r0,1792","w":512},"\u013d":{"d":"601,-1810r256,0v-2,160,7,290,-24,400v-22,79,-68,111,-168,112r-64,-128v90,1,131,-40,128,-128r-128,0r0,-256xm128,0r0,-1792r256,0r0,1600r448,0r0,192r-704,0","w":896},"\u013e":{"d":"567,-1792r256,0v-2,160,7,290,-24,400v-22,79,-68,111,-168,112r-64,-128v90,1,131,-40,128,-128r-128,0r0,-256xm384,0r-256,0r0,-1792r256,0r0,1792","w":512},"\u0141":{"d":"128,0r0,-1792r256,0r0,1600r448,0r0,192r-704,0xm64,-1088r384,0r0,192r-384,0r0,-192","w":896},"\u0142":{"d":"384,0r-256,0r0,-1792r256,0r0,1792xm68,-640r384,0r0,192r-384,0r0,-192","w":512},"\u0143":{"d":"640,-1932r-128,0r128,-384r256,0xm842,0r-458,-1192r0,1192r-256,0r0,-1792r192,0r448,1108r0,-1108r256,0r0,1792r-182,0","w":1152},"\u0144":{"d":"576,-1420r-128,0r128,-384r256,0xm544,-1088v-73,2,-115,41,-160,75r0,1013r-256,0r0,-1280r256,0r0,138v98,-82,170,-156,328,-156v118,0,184,90,184,207r0,1091r-256,0r0,-960v3,-78,-16,-130,-96,-128","w":992},"\u0147":{"d":"704,-2316r192,0r-192,384r-256,0r-192,-384r192,0r128,256xm842,0r-458,-1192r0,1192r-256,0r0,-1792r192,0r448,1108r0,-1108r256,0r0,1792r-182,0","w":1152},"\u0148":{"d":"640,-1804r192,0r-192,384r-256,0r-192,-384r192,0r128,256xm544,-1088v-73,2,-115,41,-160,75r0,1013r-256,0r0,-1280r256,0r0,138v98,-82,170,-156,328,-156v118,0,184,90,184,207r0,1091r-256,0r0,-960v3,-78,-16,-130,-96,-128","w":992},"\u0150":{"d":"480,-1932r-128,0r128,-384r256,0xm864,-1932r-128,0r128,-384r256,0xm608,-1810v366,0,512,234,512,594r0,640v-3,360,-146,594,-512,594v-368,0,-511,-228,-512,-594r0,-640v1,-366,144,-594,512,-594xm608,-1600v-192,0,-256,128,-256,320r0,768v0,192,64,320,256,320v192,0,256,-128,256,-320r0,-768v0,-192,-64,-320,-256,-320","w":1216},"\u0151":{"d":"352,-1420r-128,0r128,-384r256,0xm736,-1420r-128,0r128,-384r256,0xm480,18v-286,0,-384,-185,-384,-466r0,-384v-4,-281,98,-466,384,-466v286,0,384,185,384,466r0,384v4,281,-98,466,-384,466xm480,-1088v-128,0,-128,128,-128,256r0,384v0,128,0,256,128,256v128,0,128,-128,128,-256r0,-384v0,-128,0,-256,-128,-256","w":960},"\u0152":{"d":"640,-1810v132,0,210,64,256,146r0,-128r704,0r0,192r-448,0r0,576r320,0r0,192r-320,0r0,640r448,0r0,192r-704,0r0,-128v-47,84,-123,146,-256,146v-368,0,-511,-228,-512,-594r0,-640v1,-366,144,-594,512,-594xm640,-1600v-192,0,-256,128,-256,320r0,768v0,192,64,320,256,320v192,0,256,-128,256,-320r0,-782v-3,-184,-69,-306,-256,-306","w":1664},"\u0153":{"d":"512,18v-286,2,-384,-185,-384,-466r0,-384v-4,-281,99,-469,384,-466v132,1,210,64,256,146v47,-83,124,-146,257,-146v346,0,382,299,383,658r-512,0v5,150,-14,326,54,415v17,22,42,33,74,33v129,1,128,-127,128,-256r256,0v0,299,-105,466,-384,466v-133,0,-209,-62,-256,-146v-47,84,-123,145,-256,146xm512,-1088v-128,0,-128,128,-128,256r0,384v0,128,0,256,128,256v128,0,128,-128,128,-256r0,-384v0,-128,0,-256,-128,-256xm1152,-768v-3,-140,9,-320,-127,-320v-134,0,-126,180,-129,320r256,0","w":1536},"\u0154":{"d":"352,-1932r-128,0r128,-384r256,0xm1024,-1312v-1,211,-78,356,-224,416r288,896r-254,0r-258,-832r-192,0r0,832r-256,0r0,-1792r320,0v365,-2,578,126,576,480xm768,-1312v0,-232,-145,-301,-384,-288r0,576v238,12,384,-56,384,-288","w":1152},"\u0155":{"d":"480,-1420r-128,0r128,-384r256,0xm562,-1039v-109,0,-178,66,-178,175r0,864r-256,0r0,-1280r256,0r0,171r14,0v58,-100,145,-204,306,-185r0,283v-38,-16,-92,-28,-142,-28","w":704},"\u0158":{"d":"628,-2316r192,0r-192,384r-256,0r-192,-384r192,0r128,256xm1024,-1312v-1,211,-78,356,-224,416r288,896r-254,0r-258,-832r-192,0r0,832r-256,0r0,-1792r320,0v365,-2,578,126,576,480xm768,-1312v0,-232,-145,-301,-384,-288r0,576v238,12,384,-56,384,-288","w":1152},"\u0159":{"d":"544,-1804r192,0r-192,384r-256,0r-192,-384r192,0r128,256xm562,-1039v-109,0,-178,66,-178,175r0,864r-256,0r0,-1280r256,0r0,171r14,0v58,-100,145,-204,306,-185r0,283v-38,-16,-92,-28,-142,-28","w":704},"\u015a":{"d":"609,-1932r-128,0r128,-384r256,0xm545,-1600v-179,-8,-231,179,-161,327v22,46,53,86,97,121r320,256v136,115,256,260,256,495v0,198,-101,323,-249,385v-96,40,-262,45,-368,12v-216,-67,-325,-250,-343,-508r256,-64v9,170,50,309,171,368v24,11,53,16,85,16v128,0,192,-64,192,-192v0,-166,-95,-242,-192,-320r-320,-256v-143,-106,-247,-352,-164,-582v58,-162,199,-267,420,-268v227,-1,368,90,448,233v38,68,59,146,64,233r-256,64v-13,-176,-73,-312,-256,-320","w":1153},"\u015b":{"d":"544,-1420r-128,0r128,-384r256,0xm864,-320v0,227,-150,338,-384,338v-232,0,-332,-153,-384,-338r192,-64v40,90,76,180,192,192v128,13,158,-149,96,-238v-9,-15,-19,-28,-32,-38r-256,-192v-101,-76,-192,-141,-192,-300v0,-227,150,-338,384,-338v157,0,248,76,312,169v34,49,57,106,72,169r-192,64v-32,-80,-69,-153,-147,-184v-106,-41,-208,52,-163,164v12,29,31,46,54,64v134,107,309,204,398,348v34,55,50,116,50,184","w":960},"\u015c":{"d":"545,-2188r-128,256r-192,0r192,-384r256,0r192,384r-192,0xm545,-1600v-179,-8,-231,179,-161,327v22,46,53,86,97,121r320,256v136,115,256,260,256,495v0,198,-101,323,-249,385v-96,40,-262,45,-368,12v-216,-67,-325,-250,-343,-508r256,-64v9,170,50,309,171,368v24,11,53,16,85,16v128,0,192,-64,192,-192v0,-166,-95,-242,-192,-320r-320,-256v-143,-106,-247,-352,-164,-582v58,-162,199,-267,420,-268v227,-1,368,90,448,233v38,68,59,146,64,233r-256,64v-13,-176,-73,-312,-256,-320","w":1153},"\u015d":{"d":"480,-1676r-128,256r-192,0r192,-384r256,0r192,384r-192,0xm864,-320v0,227,-150,338,-384,338v-232,0,-332,-153,-384,-338r192,-64v40,90,76,180,192,192v128,13,158,-149,96,-238v-9,-15,-19,-28,-32,-38r-256,-192v-101,-76,-192,-141,-192,-300v0,-227,150,-338,384,-338v157,0,248,76,312,169v34,49,57,106,72,169r-192,64v-32,-80,-69,-153,-147,-184v-106,-41,-208,52,-163,164v12,29,31,46,54,64v134,107,309,204,398,348v34,55,50,116,50,184","w":960},"\u015e":{"d":"481,385v97,-3,189,10,243,-27v41,-61,-38,-102,-83,-125v-28,-14,-60,-27,-96,-40r0,-192r128,0r0,128v103,31,194,65,245,147v37,104,-29,190,-117,213v-88,23,-202,23,-320,24r0,-128xm545,-1600v-179,-8,-231,179,-161,327v22,46,53,86,97,121r320,256v136,115,256,260,256,495v0,198,-101,323,-249,385v-96,40,-262,45,-368,12v-216,-67,-325,-250,-343,-508r256,-64v9,170,50,309,171,368v24,11,53,16,85,16v128,0,192,-64,192,-192v0,-166,-95,-242,-192,-320r-320,-256v-143,-106,-247,-352,-164,-582v58,-162,199,-267,420,-268v227,-1,368,90,448,233v38,68,59,146,64,233r-256,64v-13,-176,-73,-312,-256,-320","w":1153},"\u015f":{"d":"352,385v97,-3,189,10,243,-27v41,-61,-38,-102,-83,-125v-28,-14,-60,-27,-96,-40r0,-192r128,0r0,128v103,31,194,65,245,147v37,104,-29,190,-117,213v-88,23,-202,23,-320,24r0,-128xm864,-320v0,227,-150,338,-384,338v-232,0,-332,-153,-384,-338r192,-64v40,90,76,180,192,192v128,13,158,-149,96,-238v-9,-15,-19,-28,-32,-38r-256,-192v-101,-76,-192,-141,-192,-300v0,-227,150,-338,384,-338v157,0,248,76,312,169v34,49,57,106,72,169r-192,64v-32,-80,-69,-153,-147,-184v-106,-41,-208,52,-163,164v12,29,31,46,54,64v134,107,309,204,398,348v34,55,50,116,50,184","w":960},"\u0160":{"d":"576,-1600v-179,-8,-231,179,-161,327v22,46,53,86,97,121r320,256v136,115,256,260,256,495v0,198,-101,323,-249,385v-96,40,-262,45,-368,12v-216,-67,-325,-250,-343,-508r256,-64v9,170,50,309,171,368v24,11,53,16,85,16v128,0,192,-64,192,-192v0,-166,-95,-242,-192,-320r-320,-256v-143,-106,-247,-352,-164,-582v58,-162,199,-267,420,-268v227,-1,368,90,448,233v38,68,59,146,64,233r-256,64v-13,-176,-73,-312,-256,-320xm736,-2304r192,0r-192,384r-256,0r-192,-384r192,0r128,256","w":1216},"\u0161":{"d":"896,-320v0,227,-150,338,-384,338v-232,0,-332,-153,-384,-338r192,-64v40,90,76,180,192,192v128,13,158,-149,96,-238v-9,-15,-19,-28,-32,-38r-256,-192v-101,-76,-192,-141,-192,-300v0,-227,150,-338,384,-338v157,0,248,76,312,169v34,49,57,106,72,169r-192,64v-32,-80,-69,-153,-147,-184v-106,-41,-208,52,-163,164v12,29,31,46,54,64v134,107,309,204,398,348v34,55,50,116,50,184xm603,-1792r192,0r-192,384r-256,0r-192,-384r192,0r128,256","w":950},"\u0162":{"d":"384,367v97,-3,189,10,243,-27v41,-61,-38,-102,-83,-125v-28,-14,-60,-27,-96,-40r0,-192r128,0r0,128v103,31,194,65,245,147v37,104,-29,190,-117,213v-88,23,-202,23,-320,24r0,-128xm960,-1792r0,228r-320,0r0,1564r-256,0r0,-1564r-320,0r0,-228r896,0"},"\u0163":{"d":"303,385v97,-3,189,10,243,-27v41,-61,-38,-102,-83,-125v-28,-14,-60,-27,-96,-40r0,-192r128,0r0,128v103,31,194,65,245,147v37,104,-29,190,-117,213v-88,23,-202,23,-320,24r0,-128xm640,6v-137,21,-293,17,-366,-53v-72,-69,-82,-193,-82,-334r0,-707r-128,0r0,-192r128,0r0,-448r256,0r0,448r192,0r0,192r-192,0r0,747v-2,88,16,152,106,149v28,-1,59,-6,86,-10r0,208","w":704},"\u0164":{"d":"640,-2316r192,0r-192,384r-256,0r-192,-384r192,0r128,256xm960,-1792r0,228r-320,0r0,1564r-256,0r0,-1564r-320,0r0,-228r896,0"},"\u0165":{"d":"631,-1728r256,0v-2,160,7,290,-24,400v-22,79,-68,111,-168,112r-64,-128v90,1,131,-40,128,-128r-128,0r0,-256xm640,6v-137,21,-293,17,-366,-53v-72,-69,-82,-193,-82,-334r0,-707r-128,0r0,-192r128,0r0,-448r256,0r0,448r192,0r0,192r-192,0r0,747v-2,88,16,152,106,149v28,-1,59,-6,86,-10r0,208","w":704},"\u016c":{"d":"640,-2124v114,0,127,-75,128,-192r192,0v1,243,-71,384,-320,384v-244,0,-322,-138,-320,-384r192,0v1,117,14,192,128,192xm1152,-640v3,391,-117,659,-512,659v-395,0,-512,-268,-512,-659r0,-1152r256,0r0,1152v-3,235,21,448,256,448v235,0,256,-213,256,-448r0,-1152r256,0r0,1152","w":1280},"\u016d":{"d":"512,-1612v114,0,127,-75,128,-192r192,0v1,243,-71,384,-320,384v-244,0,-322,-138,-320,-384r192,0v1,117,14,192,128,192xm384,-267v-3,71,67,107,134,81v48,-19,85,-51,122,-81r0,-1013r256,0r0,1280r-256,0r0,-138v-99,83,-170,156,-328,156v-118,0,-184,-90,-184,-207r0,-1091r256,0r0,1013"},"\u016e":{"d":"768,-2188v0,-80,-46,-128,-128,-128v-82,0,-128,48,-128,128v0,80,45,128,128,128v82,0,128,-48,128,-128xm384,-2188v0,-157,94,-256,256,-256v162,0,256,99,256,256v0,157,-94,256,-256,256v-162,0,-256,-99,-256,-256xm1152,-640v3,391,-117,659,-512,659v-395,0,-512,-268,-512,-659r0,-1152r256,0r0,1152v-3,235,21,448,256,448v235,0,256,-213,256,-448r0,-1152r256,0r0,1152","w":1280},"\u016f":{"d":"640,-1676v0,-80,-46,-128,-128,-128v-82,0,-128,48,-128,128v0,80,45,128,128,128v82,0,128,-48,128,-128xm256,-1676v0,-157,94,-256,256,-256v162,0,256,99,256,256v0,157,-94,256,-256,256v-162,0,-256,-99,-256,-256xm384,-267v-3,71,67,107,134,81v48,-19,85,-51,122,-81r0,-1013r256,0r0,1280r-256,0r0,-138v-99,83,-170,156,-328,156v-118,0,-184,-90,-184,-207r0,-1091r256,0r0,1013"},"\u0170":{"d":"512,-1932r-128,0r128,-384r256,0xm896,-1932r-128,0r128,-384r256,0xm1152,-640v3,391,-117,659,-512,659v-395,0,-512,-268,-512,-659r0,-1152r256,0r0,1152v-3,235,21,448,256,448v235,0,256,-213,256,-448r0,-1152r256,0r0,1152","w":1280},"\u0171":{"d":"384,-1420r-128,0r128,-384r256,0xm768,-1420r-128,0r128,-384r256,0xm384,-267v-3,71,67,107,134,81v48,-19,85,-51,122,-81r0,-1013r256,0r0,1280r-256,0r0,-138v-99,83,-170,156,-328,156v-118,0,-184,-90,-184,-207r0,-1091r256,0r0,1013"},"\u0178":{"d":"448,0r0,-576r-384,-1216r256,0r256,896r256,-896r256,0r-384,1216r0,576r-256,0xm256,-2304r256,0r0,256r-256,0r0,-256xm640,-2304r256,0r0,256r-256,0r0,-256","w":1152},"\u0179":{"d":"576,-1932r-128,0r128,-384r256,0xm320,-192r576,0r0,192r-832,0r0,-192r576,-1408r-512,0r0,-192r768,0r0,192","w":960},"\u017a":{"d":"512,-1420r-128,0r128,-384r256,0xm512,-1088r-384,0r0,-192r640,0r0,192r-448,896r448,0r0,192r-704,0r0,-192","w":830},"\u017b":{"d":"384,-2188r256,0r0,256r-256,0r0,-256xm320,-192r576,0r0,192r-832,0r0,-192r576,-1408r-512,0r0,-192r768,0r0,192","w":960},"\u017c":{"d":"320,-1676r256,0r0,256r-256,0r0,-256xm512,-1088r-384,0r0,-192r640,0r0,192r-448,896r448,0r0,192r-704,0r0,-192","w":830},"\u017d":{"d":"320,-192r576,0r0,192r-832,0r0,-192r576,-1408r-512,0r0,-192r768,0r0,192xm608,-2304r192,0r-192,384r-256,0r-192,-384r192,0r128,256","w":960},"\u017e":{"d":"512,-1088r-384,0r0,-192r640,0r0,192r-448,896r448,0r0,192r-704,0r0,-192xm543,-1792r192,0r-192,384r-256,0r-192,-384r192,0r128,256","w":830},"\u0192":{"d":"86,64v91,2,106,-70,106,-160r0,-992r-128,0r0,-192r128,0v1,-157,-5,-316,86,-391v76,-63,232,-65,362,-45r0,190r-86,-10v-126,-4,-104,135,-106,256r128,0r0,192r-128,0r-2,1055v-3,190,-88,293,-288,289v-61,-1,-95,-4,-158,-12r0,-190","w":704},"\u0237":{"d":"128,320v-45,0,-93,-5,-128,-17r0,-182v15,4,46,7,64,7v93,1,129,-61,128,-149r0,-1259r256,0r0,1287v-4,203,-120,313,-320,313","w":576},"\u02c6":{"d":"384,-1664r-128,256r-192,0r192,-384r256,0r192,384r-192,0","w":768},"\u02c7":{"d":"512,-1792r192,0r-192,384r-256,0r-192,-384r192,0r128,256","w":768},"\u02d8":{"d":"384,-1600v114,0,127,-75,128,-192r192,0v1,243,-71,384,-320,384v-244,0,-322,-138,-320,-384r192,0v1,117,14,192,128,192","w":768},"\u02d9":{"d":"64,-1792r256,0r0,256r-256,0r0,-256","w":384},"\u02da":{"d":"448,-1664v0,-80,-46,-128,-128,-128v-82,0,-128,48,-128,128v0,80,45,128,128,128v82,0,128,-48,128,-128xm64,-1664v0,-157,94,-256,256,-256v162,0,256,99,256,256v0,157,-94,256,-256,256v-162,0,-256,-99,-256,-256","w":640},"\u02db":{"d":"-320,313v0,-142,183,-312,256,-330r128,0v0,1,-41,54,-122,160v-47,61,-70,117,-70,166v0,44,20,52,61,61v23,5,88,7,195,7r0,128v-160,0,-267,-8,-320,-24v-85,-25,-128,-81,-128,-168","w":537},"\u02dc":{"d":"384,-1526v-53,-23,-109,-18,-103,54r-153,0v2,-151,61,-273,219,-273v111,0,180,86,281,86v37,0,52,-25,51,-69r153,0v-3,152,-61,276,-219,276v-93,0,-160,-44,-229,-74","w":960},"\u02dd":{"d":"256,-1408r-128,0r128,-384r256,0xm640,-1408r-128,0r128,-384r256,0","w":640},"\u2018":{"d":"384,-1280r-256,0v2,-160,-7,-290,24,-400v22,-79,68,-111,168,-112r64,128v-90,-1,-131,40,-128,128r128,0r0,256","w":512},"\u2019":{"d":"128,-1792r256,0v-2,160,7,290,-24,400v-22,79,-68,111,-168,112r-64,-128v90,1,131,-40,128,-128r-128,0r0,-256","w":512},"\u201a":{"d":"62,-63r256,0r-64,384r-128,0","w":384},"\u201c":{"d":"384,-1280r-256,0v2,-160,-7,-290,24,-400v22,-79,68,-111,168,-112r64,128v-90,-1,-131,40,-128,128r128,0r0,256xm768,-1280r-256,0v2,-160,-7,-290,24,-400v22,-79,68,-111,168,-112r64,128v-90,-1,-131,40,-128,128r128,0r0,256","w":896},"\u201d":{"d":"128,-1792r256,0v-2,160,7,290,-24,400v-22,79,-68,111,-168,112r-64,-128v90,1,131,-40,128,-128r-128,0r0,-256xm512,-1792r256,0v-2,160,7,290,-24,400v-22,79,-68,111,-168,112r-64,-128v90,1,131,-40,128,-128r-128,0r0,-256","w":896},"\u201e":{"d":"62,-64r256,0r-64,384r-128,0xm385,-64r256,0r-64,384r-128,0","w":704},"\u2021":{"d":"512,-448r0,448r-256,0r0,-448r-192,0r0,-256r192,0r0,-320r-192,0r0,-256r192,0r0,-256r256,0r0,256r192,0r0,256r-192,0r0,320r192,0r0,256r-192,0","w":768},"\u2030":{"d":"444,-1516v267,0,366,199,367,484v1,233,-75,396,-231,464v-147,64,-317,5,-389,-86v-69,-88,-115,-211,-113,-378v3,-284,99,-484,366,-484xm444,-1321v-156,0,-145,257,-124,413v11,81,36,173,124,173v122,0,134,-168,134,-297v0,-128,-10,-289,-134,-289xm2390,-975v266,0,366,198,367,483v1,233,-74,397,-231,465v-148,64,-318,5,-390,-86v-70,-88,-115,-212,-113,-379v2,-285,101,-483,367,-483xm2319,-750v-78,90,-76,310,-38,446v15,53,46,109,109,109v145,0,140,-228,129,-387v-7,-94,-31,-198,-129,-198v-30,0,-54,10,-71,30xm1554,-975v266,0,366,198,367,483v1,233,-74,397,-231,465v-147,64,-317,5,-389,-86v-69,-88,-115,-213,-113,-379v2,-284,100,-483,366,-483xm1688,-492v0,-128,-10,-279,-134,-288v-148,20,-141,222,-128,380v7,94,32,205,128,205v122,0,134,-168,134,-297xm1034,-1518r219,0r-282,1518r-220,0","w":2834},"\u2044":{"d":"301,-1901r219,0r-282,1518r-220,0","w":537},"\u2074":{"d":"384,-832r-320,0r0,-128r340,-576r172,0r0,576r128,0r0,128r-128,0r0,256r-192,0r0,-256xm384,-960r0,-256r-128,256r128,0","w":768},"\u20ac":{"d":"494,27v-322,2,-419,-223,-426,-535r-68,0r0,-166r68,0r0,-153r-68,0r0,-166r70,0v11,-312,95,-543,417,-543v311,0,413,212,416,518r-250,0v0,-140,-24,-247,-113,-282v-81,-32,-161,6,-187,68v-26,62,-29,144,-31,239r196,0r0,166r-196,0r0,153r196,0r0,166r-194,0v10,168,22,329,200,302v126,-19,133,-177,138,-335r247,0v-1,324,-89,567,-415,568","w":971},"\u2122":{"d":"649,-1518r0,154r-164,0r0,678r-170,0r0,-678r-163,0r0,-154r497,0xm1139,-686r-103,0r-137,-555r0,555r-158,0r0,-832r242,0r104,453r107,-453r242,0r0,832r-160,0r0,-555","w":2204},"\u2206":{"d":"664,-192r-152,-704r-151,704r303,0xm64,0r320,-1280r258,0r320,1280r-898,0"},"\u220f":{"d":"1088,-1792r0,1792r-256,0r0,-1600r-448,0r0,1600r-256,0r0,-1792r960,0","w":1216},"\u222b":{"d":"554,-1536v-91,-2,-106,70,-106,160r-2,1343v-3,190,-88,293,-288,289v-61,-1,-95,-4,-158,-12r0,-190r86,10v91,2,106,-70,106,-160r2,-1343v3,-189,88,-293,288,-289v61,1,95,4,158,12r0,190","w":704},"\u25ca":{"d":"320,-1536r258,0r252,768r-252,768r-258,0r-254,-767xm448,-256r126,-511r-126,-513r-126,512","w":896},"\ufb01":{"d":"554,-1536v-126,-4,-104,135,-106,256r192,0r0,192r-192,0r0,1088r-256,0r0,-1088r-128,0r0,-192r128,0v-1,-154,-1,-305,82,-383v74,-69,231,-74,366,-53r0,190xm832,-1280r256,0r0,1280r-256,0r0,-1280xm832,-1728r256,0r0,256r-256,0r0,-256","w":1216},"\ufb02":{"d":"554,-1536v-126,-4,-104,135,-106,256r192,0r0,192r-192,0r0,1088r-256,0r0,-1088r-128,0r0,-192r128,0v-1,-154,-1,-305,82,-383v74,-69,231,-74,366,-53r0,190xm1088,0r-256,0r0,-1792r256,0r0,1792","w":1216}}});
